{"layers":[{"out_depth":3,"out_sx":64,"out_sy":64,"layer_type":"input"},{"sx":5,"sy":5,"stride":1,"in_depth":3,"out_depth":10,"out_sx":64,"out_sy":64,"layer_type":"conv","l1_decay_mul":0,"l2_decay_mul":1,"pad":2,"filters":[{"sx":5,"sy":5,"depth":3,"w":{"0":0.01878213094111492,"1":0.08771405093568835,"2":-0.03721500443509919,"3":-0.09438378255210694,"4":-0.10258441296572138,"5":0.004863942808829585,"6":0.31653028309608516,"7":0.0706345746653725,"8":0.04437357574842214,"9":-0.12966376586233766,"10":0.06688434840973556,"11":-0.09275235030979351,"12":0.1579613024742458,"13":-0.2387651517273369,"14":0.12180224967950638,"15":-0.20958177453828417,"16":-0.1848867701761418,"17":-0.1836694421777666,"18":-0.23234418238432838,"19":-0.08384219825439827,"20":-0.36522850542195046,"21":0.0875270959084014,"22":-0.2143867843689719,"23":-0.023904282923489475,"24":-0.002644921045721718,"25":-0.034106656377819525,"26":0.15687676366368056,"27":0.08547645588088804,"28":-0.028525689910523084,"29":-0.025830625126125963,"30":0.014034139708476818,"31":0.09268807507254732,"32":-0.0211496549526041,"33":0.06779467088682661,"34":0.10021369973262266,"35":0.014910378118504436,"36":0.07198371691457177,"37":0.17838720885189788,"38":-0.08086631956716343,"39":0.12520776485388407,"40":0.24810014945948192,"41":0.23843522053428834,"42":-0.23361778502311553,"43":-0.28400905913713675,"44":0.07319056178673854,"45":0.02917225768992955,"46":-0.027765510979587522,"47":0.21920128709394476,"48":-0.049996415302121754,"49":-0.021159588722646405,"50":0.10102511061643436,"51":-0.08740936870623034,"52":0.1441310031870793,"53":0.15664538297302807,"54":-0.1258185423785302,"55":0.10404594948811233,"56":0.0214113894331679,"57":-0.12552242997481375,"58":0.12128370873709293,"59":-0.20834709235065937,"60":-0.20264952005449646,"61":0.06585843011939381,"62":-0.10804548631573069,"63":-0.05432244516495767,"64":-0.03489698843447549,"65":-0.28892615654169096,"66":-0.1089516925614423,"67":-0.2012145647605902,"68":0.046141996011746504,"69":-0.00844770855834953,"70":-0.03447591327164922,"71":-0.016338148821171624,"72":0.034204496104906314,"73":0.08208530610036019,"74":-0.15438096500310755}},{"sx":5,"sy":5,"depth":3,"w":{"0":-0.08452503708174157,"1":0.15671285501189958,"2":-0.1609961422456281,"3":-0.13193259746997893,"4":-0.06131124270410426,"5":-0.030481629705623573,"6":-0.11528434826224053,"7":0.1066694274933286,"8":-0.21129226026275597,"9":-0.008344150024823877,"10":0.10711052383528484,"11":-0.044856904499633,"12":-0.1726042283881556,"13":0.07372553766508164,"14":-0.19867058696484324,"15":-0.10137984896728854,"16":-0.11226161643745167,"17":-0.10585165837096394,"18":-0.10922779998441069,"19":-0.022174370212874023,"20":-0.20502024747214972,"21":-0.023057013653180605,"22":-0.07999321792043872,"23":-0.15541623729580215,"24":-0.06815364982380068,"25":0.049068653103190536,"26":-0.1247722018529797,"27":-0.04655920846343953,"28":0.045993566224234124,"29":-0.24423902768680406,"30":0.1180027272199466,"31":-0.12438908805159846,"32":-0.21616192679366222,"33":-0.047026564295252773,"34":0.06103322880399853,"35":-0.011679183480850125,"36":0.24397482930905473,"37":-0.00736284462532693,"38":-0.1207991676741681,"39":-0.0033909454563812898,"40":0.049677174700072574,"41":-0.27841460726682543,"42":-0.02224657465163095,"43":-0.06307778982833416,"44":-0.30273416301688544,"45":0.12887958130194235,"46":0.12329404685888712,"47":-0.1161093110525063,"48":-0.010733055636658568,"49":0.14573564234607533,"50":-0.005333874393975263,"51":-0.0333391069068928,"52":0.08847918466207211,"53":-0.1289381169273659,"54":0.14891953288480253,"55":0.0941834336454774,"56":-0.2793970436123987,"57":-0.07052350959488127,"58":0.08907808320456605,"59":-0.11732998212580792,"60":-0.05890189024560649,"61":0.26974578951511824,"62":-0.00870672990698474,"63":0.16378323496902555,"64":0.13156724261576383,"65":0.2920835070077915,"66":-0.04614492823995635,"67":0.07337050785056809,"68":0.07558400292807568,"69":-0.014403717510904825,"70":0.12525694855281735,"71":-0.020831596065474023,"72":0.00239805651493557,"73":0.10280059352400633,"74":-0.02626474460936345}},{"sx":5,"sy":5,"depth":3,"w":{"0":0.06102109884762221,"1":0.004004105435346163,"2":0.004743894862214873,"3":0.01607987631653916,"4":-0.03727752003982952,"5":-0.11359210011377528,"6":-0.13390516545624487,"7":-0.07660247073128743,"8":-0.08911578233759693,"9":-0.14177059098923564,"10":0.17081129276211757,"11":0.09610250680915731,"12":0.0036457438459659925,"13":0.3533898679219638,"14":-0.05848694140074384,"15":-0.017608185514427523,"16":0.059487249075138825,"17":0.058166370567772664,"18":-0.07931197343666399,"19":-0.0016638584954936529,"20":-0.0768896440000424,"21":-0.11933862782264448,"22":-0.1572358382787841,"23":-0.22168175646898636,"24":-0.22279092003497705,"25":0.05909425592541601,"26":-0.47073847873976504,"27":-0.18737899234185493,"28":-0.16386798885264003,"29":-0.1931018998941706,"30":0.11866174701805977,"31":0.006418058418962743,"32":-0.2282696684432299,"33":-0.05590413884402242,"34":0.243371020921161,"35":-0.061729470774949356,"36":-0.004556034876462186,"37":0.18582214826164883,"38":0.002606950410097069,"39":0.05795509507165687,"40":0.05300185692077783,"41":0.06620413743211707,"42":-0.27495698509349425,"43":-0.034283106685431615,"44":-0.03527122968596415,"45":0.0787417564981062,"46":0.09790541785441853,"47":-0.08699539798454797,"48":0.013830713242401484,"49":-0.01387512011772496,"50":-0.06575596961172589,"51":0.21765850579351007,"52":0.025559719620788283,"53":0.1303104620137758,"54":0.020445699909605236,"55":-0.052983199721053205,"56":0.0664308643026344,"57":-0.10343731956772576,"58":0.014276349622766103,"59":-0.29526166103934076,"60":0.1297661773811625,"61":0.1576661125264786,"62":-0.052864444580999766,"63":-0.09843864000668773,"64":0.0019177830889521245,"65":0.08666847561589035,"66":0.015429212538626742,"67":0.1833669348991891,"68":-0.017849894988376542,"69":-0.21357843472918567,"70":0.06332952721365424,"71":-0.19453704525701435,"72":-0.11717109746557923,"73":-0.18050781767655746,"74":-0.13196347339338163}},{"sx":5,"sy":5,"depth":3,"w":{"0":0.32893566961661413,"1":-0.0026485750729566175,"2":0.12087740444371528,"3":0.2640953291843346,"4":-0.054112249548370336,"5":-0.06238208049937397,"6":0.20645385563554403,"7":0.14070546431254718,"8":0.10454207138921177,"9":0.17846584034885185,"10":0.028370204333234755,"11":0.23237893197712758,"12":0.19094373002121898,"13":0.00035831456037869135,"14":-0.19689669289491799,"15":-0.2006149297031982,"16":0.11303592569253428,"17":-0.04190871073263988,"18":0.1882008434847712,"19":-0.05167451286800188,"20":0.13241429686604533,"21":0.03837262747987444,"22":0.05618454081973345,"23":0.08759836715266142,"24":0.0667974068819404,"25":-0.046864897834031236,"26":-0.02402499922914965,"27":0.17992583039632942,"28":0.11998787105835709,"29":0.12652177757677469,"30":-0.1657913685048135,"31":-0.3567550887008911,"32":-0.12936971852002882,"33":0.0036236162174323907,"34":-0.10032199560963409,"35":0.04415236953909134,"36":-0.21117408854610395,"37":-0.4063225686274358,"38":-0.25285196453157405,"39":0.09127977912616343,"40":-0.016091772422142152,"41":0.2693486215320326,"42":-0.17702685109584518,"43":-0.27543817481231553,"44":0.03686581239984514,"45":0.09779471755719311,"46":-0.05890994168322388,"47":0.2475253351653787,"48":0.1662194747772477,"49":-0.2703521184111978,"50":-0.11798834420605826,"51":-0.08367046866191341,"52":0.04083621981647855,"53":-0.3339572567893001,"54":0.3416906421870076,"55":-0.06972544649587795,"56":-0.04710630250920912,"57":-0.1795663001201801,"58":-0.1412022440613206,"59":-0.09680097741285947,"60":-0.20511957079557527,"61":-0.329641972835063,"62":0.33013079165340736,"63":-0.06986172601982348,"64":-0.21747668795789718,"65":0.029635175821144628,"66":-0.180541229367015,"67":0.028342356127303778,"68":-0.04646106217512894,"69":0.02037039382191649,"70":0.16440009468112046,"71":-0.23448204730744987,"72":0.06466072855884607,"73":0.15723096066519351,"74":0.12014534781763742}},{"sx":5,"sy":5,"depth":3,"w":{"0":0.046735974012319915,"1":-0.24129123535355881,"2":-0.12262761708158179,"3":-0.17752536417451673,"4":-0.11451250119387983,"5":0.012152310580445655,"6":0.06660981226765472,"7":-0.13857735435515964,"8":0.3435075976236873,"9":-0.1774597004972308,"10":0.1568702666604474,"11":0.02079560483288839,"12":-0.019845818450420702,"13":-0.010442971810708027,"14":0.08121031011086952,"15":0.20433580600789228,"16":-0.11635970931754035,"17":0.17576515136469867,"18":-0.11057427202644671,"19":-0.08149410556659302,"20":0.10936854280665136,"21":0.20644448648141675,"22":0.20903202221167633,"23":0.25413145263852455,"24":0.14044600001351298,"25":-0.1295286035087701,"26":0.06957836625429405,"27":0.07310303176830514,"28":0.04323155308472937,"29":0.06915172905743083,"30":-0.1015441983312507,"31":-0.17627064260409442,"32":-0.07183295780518731,"33":0.029539961903075937,"34":0.04309040373408828,"35":0.07996809914990627,"36":0.0604617683920131,"37":0.11674176633344374,"38":0.1389005298599933,"39":0.08467605278387824,"40":-0.17444109669927033,"41":0.0617692892254228,"42":0.13632226671427033,"43":0.03153533532593508,"44":-0.275067781528228,"45":-0.11684000963567234,"46":-0.09098526195249736,"47":-0.12673552984812905,"48":0.05973788596154701,"49":-0.050737608538438145,"50":-0.21407466121504173,"51":-0.050532009930744075,"52":-0.013456047180623293,"53":0.13784134281884236,"54":0.020678383401820922,"55":0.17321549514717802,"56":0.07088966563721437,"57":0.11015718103508311,"58":-0.25671861959057934,"59":-0.08373905019767026,"60":0.033296872691027136,"61":-0.06348385073307211,"62":0.04981510659636145,"63":0.11165626271154155,"64":0.007529206618921093,"65":0.06447601507142968,"66":0.06567180599327212,"67":-0.11438220756188051,"68":-0.10981896698476536,"69":-0.22143452169309727,"70":0.047594523266553446,"71":-0.03043369326821987,"72":-0.011278012126035363,"73":-0.22194803382995892,"74":-0.061899748765026574}},{"sx":5,"sy":5,"depth":3,"w":{"0":0.1190922175796784,"1":0.30126194645173376,"2":0.09169037874612894,"3":0.13796615224999348,"4":0.13527445779344394,"5":0.011230692512056682,"6":-0.20261550781485946,"7":-0.2072977408884624,"8":0.04519282566173337,"9":-0.07714200489404142,"10":0.03987367223011953,"11":0.02528070572571893,"12":-0.20348801885423345,"13":-0.008728613910926088,"14":-0.08711627051323474,"15":-0.10852094141610197,"16":0.051474995115515294,"17":0.37263232468164853,"18":-0.07165918256994884,"19":-0.21775519512972571,"20":-0.07805845606913424,"21":-0.07245939398213473,"22":-0.19188253563585891,"23":-0.2463660987651121,"24":-0.0708591478726109,"25":0.06402387580559327,"26":-0.1195856649745824,"27":0.023515292295929816,"28":-0.04379922159712589,"29":-0.181944495876287,"30":0.10896585294949462,"31":-0.08771195758036379,"32":0.011115338376671826,"33":0.035495092293079004,"34":-0.332527417582533,"35":-0.10476965189345622,"36":-0.15451456232697386,"37":-0.025467594698572276,"38":-0.3411251760037441,"39":-0.3060066319997802,"40":-0.1527812584235562,"41":-0.021986307955937225,"42":0.09588808633223753,"43":0.009013815528696506,"44":0.04344936663003825,"45":-0.04902997927861371,"46":0.15636241913901383,"47":0.026835446530175347,"48":0.22507437605803707,"49":0.18439298697842163,"50":0.03774296310329506,"51":-0.12465053623881236,"52":-0.27075273762276886,"53":-0.11428230463464038,"54":-0.1576307532930466,"55":0.01076798938390276,"56":-0.09734911471926147,"57":-0.0718421869569327,"58":0.02587595004050132,"59":-0.04482093161736925,"60":-0.12848504811464725,"61":-0.12088104267761045,"62":0.1729050659819426,"63":0.1088751971913088,"64":-0.12602165211545113,"65":0.24101737759139333,"66":0.06064753842216704,"67":-0.20816384679076838,"68":-0.07269800525070941,"69":0.10987719313471857,"70":0.02496137235900388,"71":-0.2545962524975451,"72":0.04628231302284716,"73":0.019559043794968433,"74":0.05843604945475106}},{"sx":5,"sy":5,"depth":3,"w":{"0":0.027130318783535116,"1":0.236495448119276,"2":-0.025114360902421445,"3":-0.013044486692076895,"4":-0.04252778648278924,"5":0.011710819927266837,"6":-0.1761559378045748,"7":0.09623688661627827,"8":-0.07270485844020709,"9":-0.26052591351690857,"10":-0.028603760182690646,"11":0.05281772857475618,"12":-0.3829241795741732,"13":-0.10835699683119002,"14":-0.24096878561451646,"15":-0.14487670377101552,"16":-0.11733974064996808,"17":0.07981293329005214,"18":-0.07375550443153835,"19":-0.0067135428615010435,"20":0.060672192144135675,"21":-0.20420322811660252,"22":-0.0031816970410601737,"23":-0.13420922601120855,"24":0.13077236934240388,"25":0.23741918821956498,"26":0.06046199590513644,"27":0.03572065015610836,"28":-0.11815233506200923,"29":0.17937794093719406,"30":-0.04866798055391359,"31":0.11109461445941124,"32":-0.14683976444208377,"33":-0.0037660114741334765,"34":0.022086718398789004,"35":-0.09998938730205824,"36":0.13654180073841712,"37":0.11535525159328389,"38":0.04814152506281606,"39":-0.02569736422599767,"40":-0.0859335107313813,"41":0.019358183881464756,"42":0.17160240258373755,"43":0.0581528075061619,"44":0.06034099366585269,"45":-0.022391944554878376,"46":-0.02405325261361257,"47":0.25582403770000034,"48":0.10548919698403943,"49":-0.05714698904783029,"50":0.033597768707760114,"51":0.03950370886651604,"52":0.010536277764892799,"53":0.02677317967963182,"54":-0.03245384251319776,"55":-0.23219702923921198,"56":-0.03585060767150085,"57":-0.011583080046634128,"58":-0.055859375369063845,"59":-0.2139886099839513,"60":0.10735086310195584,"61":-0.15171938971212065,"62":-0.04786017732808634,"63":-0.20399753747648963,"64":-0.34234461339666233,"65":-0.09085511903005764,"66":-0.11562238454300565,"67":-0.08613677149008314,"68":0.06572027393250794,"69":-0.051087094429817334,"70":-0.0442261183730208,"71":-0.2724774041816382,"72":-0.06981666628489583,"73":0.11347138186054666,"74":0.09739792155032961}},{"sx":5,"sy":5,"depth":3,"w":{"0":0.09851346421200403,"1":0.032246322817144554,"2":0.14735264739363646,"3":0.16534092466584735,"4":0.19570747774427272,"5":0.0027312316094979636,"6":0.11404606399750947,"7":0.05890770147119992,"8":0.10073367378312162,"9":-0.05863072938237172,"10":-0.1616956481967734,"11":-0.01166498635686821,"12":0.02015659299715447,"13":-0.1634060849119768,"14":-0.04463853893250401,"15":0.04989773001264915,"16":0.11209880385154543,"17":0.13158862588418663,"18":0.00013598186579349665,"19":-0.01946285424832665,"20":0.15608634661127296,"21":-0.3009164623099567,"22":0.11470023618386489,"23":0.03723865734771276,"24":0.14821034814413084,"25":0.07963690637373884,"26":-0.12499152543984289,"27":0.10767529592094197,"28":-0.09533235607217547,"29":-0.2065918127375481,"30":-0.1856586019108294,"31":-0.2182665477628261,"32":-0.0765790662347792,"33":-0.0034543968055732585,"34":-0.24417574442572906,"35":-0.18157784513290984,"36":-0.24662333742779521,"37":-0.22102515726301422,"38":-0.14168585973822803,"39":0.02762709702531496,"40":0.21563304864426228,"41":-0.1080359572505311,"42":0.10608975425402514,"43":-0.37535132591851467,"44":-0.042909864257399705,"45":-0.3177644322659264,"46":-0.3210645629736913,"47":-0.11806563132241668,"48":0.05119268398581259,"49":-0.043454537963462415,"50":-0.1514373685171053,"51":0.0979438155182847,"52":0.019579667642447476,"53":-0.1773959107893949,"54":-0.023921272408159288,"55":0.07496602381564797,"56":0.26086096756555927,"57":-0.0937116772004568,"58":-0.15572640007951427,"59":-0.12475703052791871,"60":0.051974362945487684,"61":0.0285516707326896,"62":0.16343732272267333,"63":-0.14359073770590325,"64":-0.024182476170475843,"65":0.017938851009741942,"66":0.019585105460085045,"67":-0.08130276452936257,"68":-0.07356795294055928,"69":0.33180864434159474,"70":-0.09557256326904437,"71":-0.039992616533037005,"72":0.14790384858806094,"73":0.03739500859594612,"74":-0.0834012575369667}},{"sx":5,"sy":5,"depth":3,"w":{"0":0.08180780793271401,"1":-0.0012872965006660091,"2":-0.03890977969650252,"3":-0.20522819610134985,"4":-0.05559469215343429,"5":0.034237035039359785,"6":-0.27836628477727315,"7":0.014866750507075846,"8":-0.27535349735326065,"9":-0.09578419189063431,"10":0.08614952039422377,"11":-0.019744392128709615,"12":0.005060466877009722,"13":0.08854595779187671,"14":-0.029404887214479102,"15":0.003900848891806038,"16":-0.03461929776586949,"17":-0.07181844807998586,"18":0.035329565855529155,"19":-0.04306891167034821,"20":-0.4013711715487756,"21":-0.23637048426721044,"22":-0.05433470476870697,"23":-0.29625189628696685,"24":-0.18750737718841418,"25":0.021659383397323144,"26":-0.3128593237833505,"27":-0.04003897212834889,"28":-0.12438930287104938,"29":0.11782732144022812,"30":0.11143579364797887,"31":-0.14578085696212215,"32":0.10356739912638316,"33":-0.2887760698422859,"34":0.1345695099047606,"35":-0.07853460026413915,"36":-0.017008292439869763,"37":-0.11147872167998352,"38":0.0034688604838564834,"39":-0.2533069427694608,"40":-0.1431732181419754,"41":0.13435536070172638,"42":0.0006499327721078415,"43":0.13619001111724383,"44":0.09632442330680854,"45":-0.06720600452392118,"46":-0.13906191623380956,"47":-0.03076948776516193,"48":-0.20339159464290665,"49":-0.055425369302920705,"50":-0.12104848852752591,"51":0.19107259584436095,"52":0.03536023316493099,"53":0.19114176628892823,"54":0.08613837749926087,"55":0.24121209470246,"56":-0.029996712583948423,"57":0.181931294450854,"58":0.22722538905326475,"59":0.11656244840335978,"60":-0.036917055163307226,"61":-0.1598002316061464,"62":-0.23290960287426848,"63":-0.12471010291585635,"64":0.012716689250783637,"65":-0.057755391343415355,"66":0.037303426205681736,"67":0.06020532505836831,"68":0.06720862524712744,"69":-0.02317929991809469,"70":0.006255482513070545,"71":0.01985782883201546,"72":0.035915513363468314,"73":0.3104197183736006,"74":0.05166198206850845}},{"sx":5,"sy":5,"depth":3,"w":{"0":-0.05665178067722944,"1":0.2763757376281332,"2":-0.11112811176184874,"3":-0.09195215444114962,"4":-0.14096981895006325,"5":0.0012794196361243688,"6":0.004361153913916364,"7":0.14911743036083233,"8":-0.15824390998698504,"9":0.026552016270826272,"10":-0.10965902007228838,"11":-0.21804261410438236,"12":-0.2255694609141326,"13":0.03496288400697021,"14":0.019705128083998685,"15":-0.09746515254921963,"16":-0.005923289190306959,"17":-0.16534960943234508,"18":-0.06214728782233092,"19":-0.02448396612838974,"20":0.08835511085910158,"21":0.1268659580494668,"22":-0.08844666954504553,"23":-0.0263211144472725,"24":0.11525546496238237,"25":0.25934297099663806,"26":0.1269168655508324,"27":-0.19274251847626087,"28":0.10270309602052928,"29":-0.08388676718473437,"30":0.1019829270939105,"31":-0.010992176242506733,"32":-0.1336380357314198,"33":-0.12170820106093362,"34":0.09315503557177489,"35":0.07703698789860941,"36":-0.2610359447169059,"37":0.09999206434584457,"38":0.008693644895518295,"39":-0.20979089309133056,"40":0.2767107036738889,"41":-0.03039274902754083,"42":-0.18189162080433252,"43":0.08620317361917143,"44":-0.2265431992628462,"45":-0.004559521056446573,"46":-0.052161686150493256,"47":-0.19883270008398723,"48":-0.07074974836916695,"49":-0.01567715197424325,"50":-0.5516490332958333,"51":-0.0787386174824376,"52":0.10441212827150922,"53":-0.014050203651563847,"54":-0.030778186973402146,"55":0.18009532700636136,"56":-0.04794786772848243,"57":0.26233880606404086,"58":0.07171648518616094,"59":0.03196418270920043,"60":0.15476518939040343,"61":0.13393333560548693,"62":-0.026814629343834235,"63":-0.09649909712585916,"64":0.1572003758977831,"65":-0.14200641332962152,"66":-0.08403858758184224,"67":0.007970052724120665,"68":-0.06936402768384367,"69":-0.181524303575702,"70":0.01588669918279981,"71":-0.21850485051708293,"72":-0.12399139952305405,"73":-0.0696712048436789,"74":-0.2569494087931955}}],"biases":{"sx":1,"sy":1,"depth":10,"w":{"0":0.1465431764546564,"1":0.14399685402392576,"2":0.1468194865491908,"3":-0.003579778300040551,"4":-0.03288049484614583,"5":0.11227734785951791,"6":0.21179009528776763,"7":0.1731946956299232,"8":0.14709876238834785,"9":0.2134746322028892}}},{"out_depth":10,"out_sx":64,"out_sy":64,"layer_type":"relu"},{"sx":2,"sy":2,"stride":2,"in_depth":10,"out_depth":10,"out_sx":32,"out_sy":32,"layer_type":"pool","pad":0},{"sx":5,"sy":5,"stride":1,"in_depth":10,"out_depth":20,"out_sx":32,"out_sy":32,"layer_type":"conv","l1_decay_mul":0,"l2_decay_mul":1,"pad":2,"filters":[{"sx":5,"sy":5,"depth":10,"w":{"0":-0.0886606347865439,"1":-0.20818600032353174,"2":0.014705557329976342,"3":0.0797015851783335,"4":0.03310419562903637,"5":-0.16171689073259846,"6":0.03604161348409871,"7":-0.05496091070883604,"8":-0.12177030819659149,"9":-0.05604144592464497,"10":-0.2297692507358147,"11":-0.1114861540691715,"12":-0.05481187992939245,"13":-0.1386681137850893,"14":0.02400817262427015,"15":-0.06063518081416806,"16":0.028894590192711102,"17":-0.020525490486033585,"18":-0.1103433187123464,"19":-0.13168595474081254,"20":-0.05887709038533557,"21":-0.18691340956302346,"22":-0.11538890554547833,"23":0.002884804666552452,"24":0.050853876459339864,"25":-0.010803184046762044,"26":0.09845526847132238,"27":-0.15526246638448116,"28":-0.03694692270177773,"29":-0.08141401724667181,"30":-0.08772358886280172,"31":-0.3467189657193911,"32":-0.09148874637518296,"33":-0.0858032284899452,"34":0.018080389785398842,"35":-0.05778762952905401,"36":0.09792346966571389,"37":0.07570637636008012,"38":-0.12721260414103677,"39":0.021574889742868628,"40":-0.08085732620428697,"41":-0.33636495540991135,"42":-0.01916032496080155,"43":-0.05005947779657418,"44":-0.015142200039312794,"45":0.147768433694182,"46":0.03908962663439273,"47":0.14323145394789155,"48":-0.19172084316791327,"49":-0.08183604223523044,"50":-0.034937641569286894,"51":-0.1590117649774892,"52":-0.12414026197057983,"53":0.09936242928121097,"54":0.004594517815189752,"55":-0.07528889236150614,"56":0.04720441964191424,"57":-0.0835920882531373,"58":0.026230491016859273,"59":-0.15329274066295925,"60":-0.14806975516400703,"61":-0.05323681853137588,"62":-0.07402845562565372,"63":-0.07337038073419416,"64":-0.1526612157714241,"65":-0.029972396567487382,"66":0.0783893241236348,"67":-0.012113298191961195,"68":-0.12072168782294489,"69":-0.007544337625024893,"70":-0.07591471677880199,"71":-0.07557194743863282,"72":0.02259760386424794,"73":-0.1498797542557906,"74":-0.013975290684546286,"75":-0.08215491465198917,"76":0.04366725105296803,"77":-0.010711345686981988,"78":0.1409606423754695,"79":-0.0421444617345408,"80":-0.007035915591072724,"81":-0.2121299959867108,"82":-0.1851460116550958,"83":-0.16742866456633934,"84":-0.013221257647610028,"85":0.023781857849923732,"86":-0.01756766156850458,"87":-0.0316174580382293,"88":-0.012460992066502776,"89":-0.09580322450370868,"90":0.09996776643150275,"91":-0.22490303806161507,"92":0.10511890815156832,"93":0.05124331677570717,"94":0.0878859998642511,"95":0.11151817888364583,"96":0.08730945962188665,"97":0.12046403955517239,"98":0.07806136481918605,"99":0.04473875480244215,"100":0.0612310431299689,"101":-0.14454087675263488,"102":0.029944667159736853,"103":0.06363861098067607,"104":0.04476320890834666,"105":0.04315527234104452,"106":-0.08748704494997803,"107":-0.09401019511279389,"108":-0.035345860827337997,"109":-0.07742853721633029,"110":0.10670159942116676,"111":-0.05659294926986375,"112":-0.07417540596798049,"113":-0.014524297913008818,"114":-0.052078421979015674,"115":-0.003696144534263997,"116":0.08478164974823944,"117":0.012301255998473603,"118":-0.020513360874484465,"119":-0.058581037844396854,"120":0.15202053744975477,"121":-0.16952711089300368,"122":-0.062081946489209235,"123":-0.22419337952239177,"124":0.012154870533612675,"125":-0.2521705720397229,"126":-0.042168051694155856,"127":-0.10000701913457394,"128":0.05388365685881362,"129":-0.06861360037729787,"130":0.12673956461475136,"131":-0.2605008358729164,"132":0.057988015853028214,"133":-0.16283489306411014,"134":0.05785937377325904,"135":0.011439885496831649,"136":0.01907910281158258,"137":-0.03036819512684561,"138":-0.12885439048657246,"139":-0.05644281353805741,"140":0.1033857057262307,"141":-0.22214837864688927,"142":0.03554858039282608,"143":-0.03348596778300434,"144":-0.0030738122498190244,"145":0.014917009621614099,"146":-0.006304925888402321,"147":0.008725375264804356,"148":-0.0022909323948654805,"149":-0.050636184143283865,"150":0.0630091703337166,"151":-0.07814934727760098,"152":-0.009113981084620646,"153":-0.033220558339787105,"154":-0.027521887505279993,"155":-0.02258604329991825,"156":-0.04574612809020808,"157":-0.06818602841386455,"158":0.028038230338991183,"159":0.02960590882276189,"160":-0.1742969748782291,"161":-0.17568642431195336,"162":-0.14661066299856013,"163":0.05002938480784833,"164":0.1193072797874116,"165":0.023050985140169032,"166":-0.1525071518198654,"167":-0.17114824528107797,"168":-0.10881978663106688,"169":-0.022146541922370484,"170":-0.02674451549174352,"171":-0.029334665927564795,"172":-0.15881519783737633,"173":0.04418294708309097,"174":-0.11222187754787129,"175":-0.0485855542604891,"176":-0.08715093771898519,"177":0.09213290099217296,"178":-0.05901782290968422,"179":-0.1113511087256668,"180":-0.00932823180158976,"181":-0.22881937784734294,"182":-0.0570723963906486,"183":0.17517721099001016,"184":-0.035668293495333465,"185":0.02674665114080238,"186":0.004096186494431356,"187":-0.0060003476498047565,"188":-0.1425300294596753,"189":0.11055338697013858,"190":0.01647623805472115,"191":-0.08902503620799658,"192":-0.08681026417833493,"193":0.18820930747787126,"194":-0.0708237873639226,"195":0.1433151503586285,"196":-0.11946510007706147,"197":0.20182268621551147,"198":0.043034586703635545,"199":-0.029854845815735585,"200":-0.1787797555113391,"201":-0.05717561462313775,"202":0.04013204911241431,"203":0.1012162221205493,"204":-0.037088838930680226,"205":0.0346089400602453,"206":-0.00326573303784648,"207":-0.05488834963130373,"208":0.02581886289241319,"209":-0.029787407086555494,"210":-0.0047991860662824504,"211":-0.022061849182277053,"212":-0.10095861677900914,"213":0.08686322352547633,"214":0.21962909285844948,"215":-0.005196566313843836,"216":-0.07374987514674287,"217":-0.04849002646287844,"218":-0.030061969032316616,"219":-0.15066683002729483,"220":-0.0361867023105698,"221":-0.10317487494927272,"222":-0.04819924609394769,"223":0.14951669909314028,"224":-0.026877889848291592,"225":0.015026793443776042,"226":-0.02855428390444953,"227":0.0822562455329591,"228":-0.03190697163543136,"229":-0.11775926956880202,"230":-0.08682337520570622,"231":0.000762579949558934,"232":-0.06290511041871795,"233":0.10507497110779021,"234":0.06968710695219879,"235":0.22706392037442547,"236":-0.11307252834825665,"237":0.22178316267791753,"238":-0.0853065768328728,"239":-0.08140920495689317,"240":-0.044725673327929066,"241":0.02048075437364736,"242":-0.14222760942273563,"243":-0.04227350483588678,"244":-0.016708114661816858,"245":-0.12050192642870901,"246":-0.18375598841012233,"247":0.11791970762475615,"248":-0.019605554415525563,"249":-0.12273621710888423}},{"sx":5,"sy":5,"depth":10,"w":{"0":0.02806008956163213,"1":-0.34499378164771305,"2":0.007706871145072698,"3":0.04558249954538728,"4":-0.046276921819852365,"5":-0.00041112936428854257,"6":0.08623233379083044,"7":-0.04536993921017647,"8":-0.02636370104576977,"9":-0.21108223384432445,"10":-0.00866487561041402,"11":-0.3096835822043753,"12":-0.03169881231186039,"13":-0.04978999950996316,"14":0.09478570604213361,"15":-0.17878642433953323,"16":0.0686325072048982,"17":0.05464266738450466,"18":-0.18835558717816708,"19":-0.1603116987021747,"20":0.008453488405472257,"21":-0.3850151292171501,"22":-0.03758517685778122,"23":0.04227837603710718,"24":-0.07861439376886938,"25":-0.044826411695263156,"26":-0.01306250911409857,"27":0.036554016596765784,"28":-0.10057980641719179,"29":-0.24680177248695104,"30":-0.011200100071665933,"31":-0.3619096678055991,"32":-0.1759528720486009,"33":-0.03720908623148066,"34":0.12625998077754863,"35":0.0890715097206027,"36":0.04092783649230452,"37":-0.07004308210374666,"38":-0.12288014996168434,"39":-0.1987636996677126,"40":0.04561641624897529,"41":-0.1717541548007631,"42":0.014519952522212207,"43":0.046851503399475906,"44":0.1225174797566804,"45":-0.0590187644344427,"46":0.045385273360789055,"47":0.04160666177036781,"48":-0.2573851824089982,"49":-0.11949943969702759,"50":-0.006732420908910759,"51":-0.20890453891911023,"52":-0.10743408562695879,"53":0.04616547780261524,"54":-0.013619485385445246,"55":-0.14946200597383533,"56":-0.012382674380900844,"57":-0.05611431883573469,"58":-0.06397622744307514,"59":-0.26915618990453544,"60":0.07814424197628467,"61":-0.2982376287795616,"62":-0.17362277925670233,"63":-0.13536639437475032,"64":0.0014295591270411996,"65":0.006009134015514259,"66":-0.00686974043263967,"67":0.024540777584507165,"68":-0.24978954390071462,"69":-0.18143769404630064,"70":0.0949488530649511,"71":-0.3222655262000357,"72":-0.06502749488353479,"73":0.01912968684917022,"74":0.03131242198476584,"75":0.0013799426214821395,"76":0.03648354936649495,"77":0.08681597759072832,"78":-0.04010182157918046,"79":-0.1953094247674092,"80":-0.14742162553406957,"81":-0.16745256282570573,"82":-0.0772126748609081,"83":0.0516690250206031,"84":0.11416104696799304,"85":0.06697336213708494,"86":-0.050176824689826025,"87":0.014628058797264181,"88":-0.08217480012034745,"89":-0.12974724000192847,"90":-0.12673606259358827,"91":-0.11342720900799678,"92":-0.028068284592583554,"93":0.07583379833918825,"94":0.033873382526186796,"95":0.06888791913695302,"96":0.037036233014414735,"97":0.1372360836019321,"98":-0.20266571579789608,"99":-0.17353999817824436,"100":-0.03345499705902272,"101":-0.20575385841165295,"102":0.051115270538158813,"103":0.12473275184393416,"104":-0.02187239506897693,"105":-0.03466257786530724,"106":0.018297681599465373,"107":-0.03188153089786593,"108":-0.03466711981882733,"109":-0.19465404555584181,"110":-0.02061054099158715,"111":-0.23199872857060705,"112":-0.2198161465500285,"113":0.08824222405074153,"114":0.010201087775845486,"115":-0.11681340157292057,"116":0.006945579188400003,"117":0.14958684864542277,"118":-0.38617856007392826,"119":-0.10787289470640173,"120":0.028274750593696402,"121":-0.24873818848396967,"122":-0.12180134817819542,"123":-0.03608556101571962,"124":-0.02403789475442193,"125":0.03646058019669739,"126":0.07757549352872967,"127":0.13956772997658928,"128":-0.2613526185781003,"129":-0.18762137344110588,"130":-0.03605421773581083,"131":-0.1635189109738901,"132":-0.06299384616563306,"133":0.0018510917128220514,"134":-0.03262068178884134,"135":-0.009929584336832008,"136":-0.004886761537196065,"137":0.07175703593737376,"138":-0.1125870559898865,"139":-0.2591041766127891,"140":-0.10510026920409653,"141":-0.12583568234292222,"142":-0.06064789196144623,"143":-0.09041879902397863,"144":-0.1021176467231853,"145":-0.05735755738446015,"146":0.10071321703549675,"147":-0.03116097990055388,"148":-0.24920208087858822,"149":-0.2855116437734275,"150":-0.03835424368746048,"151":-0.1196722115799222,"152":-0.06827941777240196,"153":0.12862544947057428,"154":0.10946289466182575,"155":-0.02321879190114306,"156":-0.12906456328447016,"157":0.14028613752545724,"158":-0.24803367394817896,"159":-0.17405071100292505,"160":-0.0659468809019781,"161":-0.2530682097808124,"162":-0.011464470066130472,"163":0.057775665063555505,"164":0.04733918767293739,"165":-0.07800138903886891,"166":-0.15087827586031158,"167":-0.01730267393543432,"168":-0.46504399794521306,"169":-0.12633247279144266,"170":-0.08525751257591369,"171":-0.09073434965358192,"172":-0.06476758187046396,"173":0.06834939436625707,"174":-0.007925540059929867,"175":-0.1290369966679511,"176":-0.03973586866447864,"177":0.08266131875428322,"178":-0.09064467263311093,"179":-0.08523053930453174,"180":-0.12702789778850518,"181":-0.1263824651550426,"182":-0.03307488748302016,"183":0.04084238399485265,"184":0.020611817002570167,"185":0.03571575764061924,"186":-0.12861123093795018,"187":-0.06048914477521058,"188":-0.1418798072854735,"189":-0.20289389067533778,"190":-0.09248913866584317,"191":-0.2084147564314196,"192":-0.027301023471808943,"193":0.009289492132026591,"194":-0.06854079959321724,"195":0.023283058100142185,"196":-0.26585451825202916,"197":-0.05468779403321511,"198":-0.16125531776604482,"199":-0.25170575792578925,"200":-0.14953932772120707,"201":-0.19109801766094356,"202":0.22219232245481543,"203":0.03513269407031188,"204":0.0038743810936028747,"205":-0.0750561621197844,"206":-0.03761829571664068,"207":0.08646336808135845,"208":-0.17518530615732225,"209":-0.18146603197569655,"210":-0.11257038846040165,"211":-0.0536467450001762,"212":0.16951640429417225,"213":-0.00929559809233348,"214":-0.11295188446734405,"215":-0.016160268727702987,"216":-0.14478850460370432,"217":0.07948536679071204,"218":-0.23252587135532848,"219":-0.12259497479964575,"220":-0.061172097128306735,"221":-0.10137985904875521,"222":0.06418970498409443,"223":-0.09520793046335242,"224":-0.05506550721635929,"225":0.04958343213154985,"226":0.04566662474593599,"227":0.0023806700593389744,"228":-0.28737620550580495,"229":-0.09646928796314984,"230":-0.06211561218013697,"231":-0.060942135981042596,"232":0.007565908473306686,"233":-0.137082254548768,"234":-0.10989276428372445,"235":0.05582357933648041,"236":-0.15006810686350347,"237":-0.1321060162568229,"238":-0.23437822360343002,"239":-0.1904367946399981,"240":-0.02202656127835979,"241":-0.09852418843559736,"242":-0.019606023145374466,"243":-0.07394036346221007,"244":-0.04183501224342189,"245":0.0058390197162915556,"246":-0.09787265796834328,"247":-0.13740516355341945,"248":-0.18944857383979724,"249":-0.03265303794248013}},{"sx":5,"sy":5,"depth":10,"w":{"0":-0.06395572411263387,"1":-0.08061828340588055,"2":-0.07157963736938375,"3":-0.14638471446771162,"4":-0.1653110426838222,"5":0.048659929284816314,"6":-0.03732112215488362,"7":-0.12031187962286198,"8":-0.10558602045265308,"9":0.10174510052964499,"10":-0.06647628155885363,"11":-0.10645710060883459,"12":-0.07182066300532372,"13":-0.1490832742900501,"14":-0.2206399400732343,"15":-0.031113505346505442,"16":-0.06090678681245937,"17":0.005472591083231532,"18":-0.13093190017947834,"19":0.021161330410378203,"20":-0.0030512907629431517,"21":-0.268447788479783,"22":-0.09196640695672725,"23":-0.1381959418076371,"24":-0.22610439071144248,"25":-0.03407620902293443,"26":-0.012554544578100365,"27":-0.18809755340219278,"28":-0.23984358857447355,"29":-0.0267966331508857,"30":0.028302725145621013,"31":-0.17821711085217726,"32":-0.05846193806231225,"33":-0.14365325502437926,"34":-0.10021765931650811,"35":-0.09174054588986864,"36":0.011952499610169302,"37":-0.1408119891948719,"38":0.012590056536530503,"39":-0.21672329767467113,"40":0.03410119123795431,"41":-0.20420528510340208,"42":-0.21897086121728027,"43":-0.07637105685726735,"44":-0.012648341417767474,"45":-0.13450413909278075,"46":0.10060515539811271,"47":-0.08590220537235296,"48":-0.2133418623329298,"49":-0.05901999636176292,"50":-0.06031496958774824,"51":0.13726025915269544,"52":0.11049363824339589,"53":-0.1475708144970008,"54":-0.1284950616854156,"55":-0.015056015542417398,"56":-0.13475188098158447,"57":-0.14004832133715123,"58":0.08289420965151904,"59":0.0936118914572741,"60":0.0018409317037893262,"61":0.03906675048558672,"62":-0.001643385990252697,"63":-0.2148727882868532,"64":-0.13727248404706852,"65":-0.06317041127986063,"66":0.07523824491098445,"67":-0.0944995099910109,"68":0.03894942856363175,"69":-0.006761447440517384,"70":0.03365890697471073,"71":0.10439927962970127,"72":-0.05861120766657585,"73":-0.18261637732148647,"74":-0.09348742189653508,"75":-0.1013458637364317,"76":-0.07611024226249612,"77":-0.17177636469178081,"78":0.05772221723085501,"79":-0.047314014098853614,"80":-0.07298700553598811,"81":-0.025095680813145647,"82":-0.005023105748132592,"83":-0.15553578278920685,"84":-0.11010761427114005,"85":-0.08485614390613788,"86":-0.0682210760005359,"87":-0.026166716502805984,"88":0.02330003384944323,"89":-0.11385881286071207,"90":0.10413675702276659,"91":0.010762129127957779,"92":-0.07560461140863547,"93":-0.14465111105008088,"94":-0.15806682683644685,"95":0.01786201120759433,"96":0.00572746603594912,"97":-0.12423838105968463,"98":0.0496964757816983,"99":-0.06315229200875258,"100":-0.04228426093274319,"101":0.01815578307672013,"102":0.05066185694811145,"103":-0.25515837363153193,"104":-0.17785923906924597,"105":-0.020763069095036744,"106":-0.18665456916125567,"107":-0.17776857834168977,"108":-0.05313731948166187,"109":-0.016898529441202955,"110":-0.06808511202956125,"111":0.02606648848151927,"112":-0.03180215574903351,"113":-0.15154507962150013,"114":-0.07740275214109481,"115":-0.06818142492872037,"116":-0.11260954768877537,"117":-0.23563053304447637,"118":-0.07551888967470122,"119":0.12856556475146153,"120":-0.10608456854946663,"121":0.06571718424672282,"122":-0.011108319571946688,"123":-0.14382564825077965,"124":-0.10073443908135819,"125":-0.08850843061405235,"126":-0.11726702466536292,"127":-0.04971744033167567,"128":-0.09363895652945707,"129":-0.0247892463069069,"130":-0.10907718001437956,"131":-0.05428551511246134,"132":-0.06203872803082543,"133":-0.10605754024451451,"134":-0.09172155551424395,"135":-0.003447061492376214,"136":0.05604427935332112,"137":-0.012840032315523013,"138":-0.012868642053306744,"139":-0.055866381575061685,"140":-0.026189520317939332,"141":-0.018452255765687178,"142":-0.037389075795802314,"143":-0.12832859321073112,"144":-0.14311726677928463,"145":-0.1107719411523565,"146":-0.05888419490189878,"147":0.02783983781307771,"148":-0.0361444080250448,"149":-0.14823278079752242,"150":-0.00013928331475494105,"151":0.013077163916145152,"152":-0.00506718740853121,"153":-0.10948145037246293,"154":-0.01911819347519536,"155":-0.11741079705513564,"156":0.08859364285605054,"157":0.01676305246818698,"158":-0.010335252924141178,"159":0.058139169732253755,"160":-0.06382965082282789,"161":0.026869665866203724,"162":0.17932625925508902,"163":-0.13895409919248888,"164":-0.054027498426720076,"165":-0.05235726010510186,"166":0.13935550126959814,"167":-0.04678345496125753,"168":0.0025630236733931175,"169":-0.05167732940979485,"170":0.01256490065650448,"171":0.002891718435729515,"172":-0.0348228376105451,"173":0.0048651659090017205,"174":0.03187826844244483,"175":0.001972187346441146,"176":0.06219903347178666,"177":-0.11533762312743638,"178":0.10857115138507599,"179":-0.019641604336379636,"180":0.1740558215311688,"181":0.0928697713114752,"182":-0.08987362085103798,"183":-0.1039699571557325,"184":0.09619112378488814,"185":-0.008762389367854569,"186":-0.02615984872343709,"187":-0.049342494130386966,"188":0.07121121542036117,"189":0.003944013682452272,"190":0.12176824901285387,"191":-0.05095718682845298,"192":-0.06736041146902143,"193":-0.01260126493551361,"194":0.041263897665171044,"195":0.02181598474488405,"196":0.0696525141795587,"197":0.0032024726137247998,"198":0.10156779047686547,"199":0.039018622103943426,"200":0.023568498224746062,"201":0.018960210784743473,"202":0.037784045209310925,"203":-0.11685423264018117,"204":-0.11967080681988942,"205":-0.014971579116382482,"206":0.031293750166088284,"207":-0.07750431787898195,"208":0.21252803830980177,"209":-0.12051092977324791,"210":0.023356433298003146,"211":0.044708639555110306,"212":0.04444424517714673,"213":-0.1961973415178056,"214":-0.1219924622880218,"215":0.0371233871453303,"216":-0.021258231515614154,"217":-0.08420057270846015,"218":0.12834641756721607,"219":0.018556731830491155,"220":-0.01915066277454777,"221":-0.030672242876455806,"222":0.07308192194990136,"223":-0.13346108027365458,"224":-0.08490875559982954,"225":-0.01609932136360451,"226":0.06055074907571014,"227":-0.013522057495254718,"228":0.10416672658576129,"229":-0.004635117518345913,"230":-0.05975842585628618,"231":-0.08440675450078756,"232":-0.06498522023503336,"233":-0.09514902404326091,"234":0.04362086054354053,"235":-0.018467682753824086,"236":-0.06644549554455502,"237":0.014964893791453368,"238":-0.036953169478407905,"239":-0.09746548660165362,"240":0.047748032667510626,"241":-0.09051585854862756,"242":-0.043722894909257785,"243":-0.12026310941510365,"244":0.0320599061382068,"245":-0.144604295746405,"246":-0.031823562993081325,"247":-0.011751011378666937,"248":0.0015050646016786455,"249":-0.15595216297814765}},{"sx":5,"sy":5,"depth":10,"w":{"0":0.05971397986195738,"1":-0.07105885041358564,"2":0.015112312876380788,"3":-0.010911517892686403,"4":-0.1251748618734992,"5":-0.023937285209243885,"6":0.00424749607199806,"7":-0.09149958072973836,"8":0.04314736316055408,"9":-0.04039864185066663,"10":-0.016114466661281857,"11":-0.15102626124265267,"12":0.0692165331251052,"13":0.09472606543643021,"14":-0.10095348046484769,"15":-0.03682005945458972,"16":0.009789316998990213,"17":0.0404354879155595,"18":-0.05838769333524722,"19":-0.11494629867988385,"20":-0.04205705389224306,"21":-0.11413491396034861,"22":0.008545341792858988,"23":0.031108312059761944,"24":-0.06909670730259851,"25":-0.04394607010271981,"26":0.02059775512505223,"27":0.000013768610120950492,"28":-0.060512991954756935,"29":0.07620234490423415,"30":-0.053348327474023904,"31":-0.12875260784932138,"32":-0.019496247094827585,"33":-0.06924495373453657,"34":-0.05562422058691579,"35":-0.09217849117645832,"36":-0.032409735146606,"37":-0.003170486611176253,"38":-0.001466349663165073,"39":0.01638567192768199,"40":-0.018997337426585315,"41":0.022509221393272563,"42":0.05950041344930097,"43":-0.007380991557510947,"44":-0.08901951722990079,"45":0.06493476883647428,"46":-0.031736087242540054,"47":-0.005767954538210566,"48":0.06570635930154639,"49":0.029427137385885347,"50":0.13289861963743857,"51":-0.12460239706037263,"52":0.0443842944137381,"53":0.02060752902638116,"54":-0.03565998283678816,"55":0.032824968205781055,"56":0.03957693890001626,"57":-0.06720809871622493,"58":0.03927483807816887,"59":-0.09464562743664635,"60":0.06140727908967775,"61":-0.08266145277742239,"62":-0.025672332223168573,"63":-0.15105182635189798,"64":-0.011857147904511693,"65":-0.048520125935015736,"66":-0.014411013655882375,"67":0.04670623680383053,"68":-0.14337360590242768,"69":0.0023395410448662484,"70":0.0793738917466646,"71":-0.01605644561973947,"72":-0.05500515744615747,"73":-0.04490965483210916,"74":-0.04639809006388948,"75":0.06558335407140624,"76":0.029111300352939486,"77":0.05119974327926045,"78":-0.06723300997585775,"79":-0.02288032961560676,"80":0.09178089237406928,"81":-0.08554954125618267,"82":-0.08362770596414729,"83":-0.14694539517736396,"84":-0.061810561193798984,"85":-0.03715138346280901,"86":0.09625207821377932,"87":-0.049778914797231996,"88":0.009644805302077671,"89":-0.027442781414604267,"90":-0.007336975960465271,"91":-0.09453563791538705,"92":0.07705376164040514,"93":-0.004122848043088625,"94":-0.08297211332329169,"95":-0.09880298602523473,"96":0.030150619507828217,"97":-0.06731357944465474,"98":-0.07388365743640042,"99":-0.05058318747583458,"100":-0.09130663929196424,"101":-0.07163076758355133,"102":-0.068918404386031,"103":-0.16548334152731833,"104":-0.18064603652177133,"105":-0.035071397546312465,"106":0.09521261746434871,"107":-0.022774266723298374,"108":-0.08904035517548103,"109":0.00890708173722918,"110":-0.015618059502141297,"111":-0.04253444386596725,"112":-0.1132624054957824,"113":-0.09609932932432601,"114":0.020189773778214293,"115":-0.04756672957952186,"116":-0.03374614386703932,"117":-0.03895281207584816,"118":-0.059092557916831635,"119":-0.0034471497147532644,"120":0.07130850368147028,"121":-0.07942682300250795,"122":-0.02037066431810338,"123":-0.12618934993743922,"124":-0.0754426388508943,"125":0.006025760514720796,"126":-0.06732295450629645,"127":-0.06002334682916989,"128":-0.11897408613583532,"129":0.014059321877122806,"130":0.020749306673003856,"131":-0.04634919801704017,"132":-0.09968148786746268,"133":-0.13872720685134807,"134":-0.07723720309303307,"135":0.056509596333955484,"136":-0.11536625652850395,"137":0.09636571940804559,"138":-0.04484197410010668,"139":-0.038064930414555144,"140":-0.0011697089857049482,"141":-0.060109985000405,"142":-0.06020533239459244,"143":-0.09934191857214664,"144":-0.06507952344948285,"145":-0.0344939651539903,"146":-0.12812259803710987,"147":-0.010418124558841963,"148":0.03244581545341308,"149":-0.028901688280755962,"150":0.08654919570896423,"151":0.05108239059295327,"152":0.03560759337717458,"153":-0.1419279959450113,"154":-0.05274600181261665,"155":-0.022764705805641418,"156":0.011620497927615077,"157":0.01247165087595979,"158":0.09068488569873656,"159":0.01578793768526381,"160":-0.025943881576885326,"161":-0.043028500769539506,"162":-0.058990374099710995,"163":-0.09259671604391219,"164":-0.09552128501029183,"165":0.04669177221675058,"166":0.06405457676073893,"167":-0.036584527830757024,"168":0.06089205706173932,"169":0.0013307954666209856,"170":-0.03968570487556416,"171":-0.10469127580700431,"172":-0.04833498761960813,"173":-0.027068737250022824,"174":-0.12280247295362981,"175":0.07338220595456232,"176":-0.05866435904719801,"177":-0.11486142949409986,"178":-0.07706636970547545,"179":0.005358501698263418,"180":0.061865744975196216,"181":0.0365681952739357,"182":-0.10107015257846697,"183":-0.11700890570770114,"184":-0.1479302852949661,"185":-0.020789355034036654,"186":0.09399144995057827,"187":-0.07835344926286744,"188":0.051378163430097136,"189":-0.0643423604907776,"190":-0.05745117351756441,"191":0.025311774445643215,"192":0.04498224371563068,"193":-0.08506763539158316,"194":-0.10152202735629715,"195":0.009955395498192427,"196":0.04255317079610866,"197":0.05400805295440037,"198":0.04762308856929562,"199":0.0417545231720003,"200":-0.016044785053785912,"201":0.07493086655304003,"202":-0.07212520040232753,"203":-0.07647818946619017,"204":0.02128946583748092,"205":0.013650527555850717,"206":-0.02399715363750218,"207":-0.004236575707470928,"208":0.02307594686796169,"209":-0.035136411990055974,"210":-0.03200900757329635,"211":0.07838178984348429,"212":0.003957953588838829,"213":-0.09335196579284205,"214":-0.054889300350821076,"215":-0.01831749921084223,"216":0.009928437631531853,"217":-0.057397233421142724,"218":0.07918785927296976,"219":-0.0025528555229975365,"220":0.015208775054299907,"221":0.06223051277359957,"222":-0.03836215735969221,"223":-0.04203232496062394,"224":-0.09826263560117673,"225":-0.06839549251871428,"226":0.05075121511876149,"227":-0.007716163205744576,"228":0.09048421369975097,"229":-0.04949017789429619,"230":0.030664820811639664,"231":0.09562846825009942,"232":-0.01558445636209247,"233":-0.18840277398523092,"234":-0.04411210556037665,"235":0.08790177386484027,"236":-0.019304058066974304,"237":-0.05367311100734045,"238":0.0650163241230537,"239":-0.020442814643740013,"240":0.11688744948082531,"241":0.05120245182228318,"242":0.04681490091345776,"243":-0.050438184572859826,"244":-0.028646072562050363,"245":0.10603397913027497,"246":0.03602495160062836,"247":0.0027678784590273627,"248":0.005346104756450954,"249":0.026893618812939772}},{"sx":5,"sy":5,"depth":10,"w":{"0":0.033976112457404145,"1":-0.09915421149643548,"2":0.09887117791083286,"3":-0.03916920305470501,"4":-0.01888736907341096,"5":0.11962288437424837,"6":0.1913831649059178,"7":-0.05353540767952307,"8":0.1311530959089467,"9":-0.0012946885314213848,"10":0.11384064644966609,"11":-0.17162633693249704,"12":-0.019014845843455315,"13":0.15712057176786376,"14":0.01717634676099209,"15":-0.030361989769145992,"16":0.09531926545709431,"17":0.09096966498128568,"18":0.1115091279410383,"19":-0.07407996423298599,"20":0.026315144449540744,"21":0.005110602737259181,"22":-0.18149292709096287,"23":-0.06753727865619533,"24":0.05102415329163646,"25":-0.02101721548914912,"26":0.11122939921970704,"27":-0.08193380740544653,"28":0.0364232348841645,"29":-0.10182571455165432,"30":-0.050922042407974676,"31":-0.07464040752707177,"32":0.010153989378187615,"33":-0.1399624316150935,"34":-0.02471379081430085,"35":0.040663722791838115,"36":-0.041400845738946895,"37":-0.017777103078468578,"38":0.010476615221429512,"39":-0.13353137739285087,"40":-0.05328085830155193,"41":-0.0848848583772217,"42":0.024775442375390904,"43":-0.13308249828987462,"44":-0.018806952413032537,"45":0.16611129276643896,"46":-0.007431539600037783,"47":0.13922819558472505,"48":-0.14844473927887103,"49":-0.12232772951021614,"50":0.10579915629480467,"51":0.0035280802322494396,"52":0.10096303161802948,"53":0.0587393433320447,"54":0.028849002029387776,"55":0.0608621309855853,"56":0.2610023081376081,"57":0.05702382923241861,"58":0.30992492304633945,"59":-0.10951872647353304,"60":0.09250194136568346,"61":-0.09233743323907262,"62":-0.026075785017452665,"63":0.0029594006297914634,"64":-0.11589316278125171,"65":-0.10302170893124316,"66":0.12580082273226226,"67":-0.0010784885376855366,"68":0.2003536727569766,"69":-0.0503941410443539,"70":0.01466285986978035,"71":-0.16906631059840277,"72":-0.08153096330290566,"73":-0.20603713499273538,"74":0.0017297602092072092,"75":-0.062290736441611184,"76":-0.09026787556612269,"77":-0.04937844984699606,"78":0.1538804195569101,"79":-0.019574243412272305,"80":0.04588688774194357,"81":-0.07736318056792774,"82":-0.11137680734277092,"83":-0.09205637965696394,"84":0.003446659129795071,"85":-0.05544341177354718,"86":-0.08926289435281588,"87":-0.08239645794083822,"88":-0.08187642815339771,"89":-0.10778239606271219,"90":-0.1050105902119959,"91":-0.11953301855264291,"92":-0.04689376323848152,"93":-0.0764919483122148,"94":0.033811262378608986,"95":0.3235077313458744,"96":-0.03927873726633101,"97":-0.06830591988078583,"98":-0.17647374244064948,"99":-0.09948237717588743,"100":-0.05061790674578612,"101":-0.07048170703845981,"102":0.054712373051038675,"103":0.09581060770526469,"104":-0.06995380633963685,"105":0.0929424970577474,"106":-0.05235476847016154,"107":-0.17248651657501707,"108":0.04203225125130237,"109":-0.07843222709298095,"110":-0.007718350929507568,"111":-0.11850119304443395,"112":-0.05816596214483541,"113":0.06123010943330179,"114":0.032825906049554605,"115":0.065196797004163,"116":0.15479093670424113,"117":-0.029626181456424122,"118":0.09545156294837379,"119":-0.06248180657094509,"120":0.03987471834163961,"121":-0.04925221058926109,"122":0.0968392825523843,"123":0.03971702271592654,"124":0.25960888329761195,"125":0.010398553364903444,"126":-0.10395333649240766,"127":-0.10258606927732192,"128":-0.042007222853623113,"129":-0.08995473329655063,"130":0.06897799162893473,"131":-0.11416301685383641,"132":-0.15083714104751916,"133":-0.058996504208149156,"134":0.156884337858477,"135":0.09945736211018909,"136":0.005240560633232331,"137":0.026277395227403064,"138":-0.05362765515491652,"139":-0.10021707067973779,"140":-0.02550872700032648,"141":-0.27674190643238117,"142":-0.04872341447919861,"143":-0.02483369565450791,"144":0.1563428063467534,"145":0.06768628759526425,"146":-0.07099921116016367,"147":0.08425797159020641,"148":-0.2872058731802957,"149":-0.24992001292979568,"150":0.036938796981900376,"151":-0.013961271931122652,"152":-0.0016416221926906604,"153":-0.0821032230060359,"154":-0.08991103950416625,"155":-0.07046468605964332,"156":0.16848273484816106,"157":-0.04725837432974619,"158":0.10171272052495502,"159":-0.06802823498696002,"160":0.05177272949482119,"161":-0.13234001837759665,"162":-0.04523594091038412,"163":0.01896934151888041,"164":0.0625565272864784,"165":0.06826025550242207,"166":0.01888244595969695,"167":-0.0926485604181513,"168":0.11002758043429484,"169":-0.11715813632608979,"170":-0.09194427725755816,"171":-0.16750835077114046,"172":0.00879887273283447,"173":0.21131116764238353,"174":0.0692621325334477,"175":-0.007758147485272681,"176":-0.10401354712725688,"177":0.02721672093832475,"178":-0.09584290692973327,"179":-0.008647636856800934,"180":0.09556192866237086,"181":-0.05787776163380292,"182":-0.07991076328632842,"183":0.12856395394634193,"184":0.23369497215825777,"185":0.1950135492673723,"186":-0.0281437287643582,"187":0.1300357823370369,"188":-0.025492514609733268,"189":-0.13944230262769036,"190":0.020820131528247472,"191":-0.26326407650667843,"192":0.0016334315111490448,"193":0.27760894122712926,"194":0.10647087705234672,"195":0.05467272762224307,"196":0.025496806924408533,"197":0.16935955617746848,"198":-0.013929675764368607,"199":-0.12158188882921042,"200":0.08766733465082989,"201":0.08366916596529175,"202":-0.016136657376055158,"203":0.14364665976417457,"204":0.022458629166247735,"205":-0.03341978329784614,"206":0.042558397943074776,"207":0.02750291529565548,"208":0.04659263817904969,"209":0.0013670973791954954,"210":0.057624005596198166,"211":0.035366975096782875,"212":0.05379876695619252,"213":0.04909947771785242,"214":-0.05397197867962194,"215":-0.008941532670019648,"216":0.18748542970978807,"217":-0.02456498793006151,"218":-0.03498735929463172,"219":-0.05516442150788913,"220":0.09877187961455257,"221":-0.07577663570724659,"222":0.021389136436973114,"223":0.19582303130086673,"224":0.32284014529523536,"225":0.03431093313210248,"226":0.028693631285585164,"227":0.08921578427420619,"228":0.11112152759797228,"229":-0.07611178839498522,"230":0.20265500306977888,"231":0.00016784413518655997,"232":-0.02750570957360931,"233":0.058837547167566395,"234":0.008156103107564693,"235":0.22594166419203676,"236":0.012385090678322374,"237":0.1252625347494364,"238":0.03938986594242773,"239":-0.0725852106127751,"240":0.08543769345142159,"241":0.006365498103173426,"242":-0.0939414517706643,"243":0.1625256245182631,"244":-0.041571107064637146,"245":0.20263553755170466,"246":-0.02558757411502012,"247":0.12564727929016561,"248":-0.03364899324977734,"249":-0.09566065534841299}},{"sx":5,"sy":5,"depth":10,"w":{"0":0.060616058332351765,"1":-0.26970611128439637,"2":0.010538065591761204,"3":-0.04476808767468984,"4":0.008995188710624175,"5":-0.12025083572090406,"6":0.04611559667186301,"7":-0.020616330303294322,"8":-0.09014466117913594,"9":-0.07100518215624296,"10":-0.10586993351020714,"11":-0.19378867931482413,"12":-0.05520665589190714,"13":-0.023409655620255244,"14":-0.02511927111497818,"15":-0.005123797859073805,"16":0.0879346465095979,"17":0.024040091270138196,"18":-0.09977566837385542,"19":-0.06665538698960764,"20":-0.027773634928422684,"21":-0.26249937832529935,"22":0.05726710907516214,"23":-0.10054145201030867,"24":-0.023307543026332297,"25":-0.026048803324306844,"26":0.040839775172930554,"27":-0.00009684000168762847,"28":-0.13037803562414768,"29":-0.037836348612934424,"30":-0.003783883983357955,"31":-0.25424976961903545,"32":-0.08648697825926827,"33":-0.14929562484418615,"34":-0.10607566088299818,"35":-0.04846017564228785,"36":-0.05554222949266008,"37":0.03998072548406242,"38":-0.03123459963917264,"39":-0.052545859395107614,"40":0.019010851644721792,"41":-0.2282284377097141,"42":-0.002087445091428744,"43":-0.045202198590611135,"44":-0.047742019585209954,"45":-0.06839880875120882,"46":0.08496789940535485,"47":0.05544308611909969,"48":-0.0803761836074454,"49":-0.042725250971274796,"50":-0.0907685147803285,"51":-0.19723588804348535,"52":0.06317013171941217,"53":-0.15147180998162696,"54":-0.09347566856271859,"55":-0.007310582215339331,"56":-0.04923528997549373,"57":-0.08985138107058,"58":-0.06998032682332812,"59":0.12379675090021622,"60":-0.12652191788573144,"61":-0.2016926381167144,"62":0.039788049509269695,"63":-0.021864048068367826,"64":-0.05058602795082803,"65":-0.07809848895156529,"66":0.02009998682877861,"67":-0.10521965162002081,"68":-0.08003234565466567,"69":-0.10516631505954488,"70":-0.033142706730009075,"71":-0.14773981514753887,"72":-0.07429780586132442,"73":-0.03858271527452818,"74":-0.011631039673204127,"75":-0.03662310649515382,"76":-0.03227674295503383,"77":-0.022627247420018908,"78":-0.11333043308789494,"79":-0.07860100138961686,"80":-0.10612442286418819,"81":-0.2719718658309046,"82":0.0976409213596863,"83":-0.11197154060405534,"84":0.09799093315146952,"85":-0.05418533074993287,"86":-0.0025182504205102096,"87":-0.006444907705316132,"88":-0.08597311355608067,"89":-0.013820066262509896,"90":-0.1494698803016582,"91":-0.2205311369873996,"92":0.03743918961873498,"93":0.005469697441667842,"94":-0.1236785546538751,"95":0.06931450786859883,"96":-0.03555913848801747,"97":-0.019153795799002223,"98":-0.18873360331350594,"99":-0.10532530508883922,"100":-0.03687415164205411,"101":-0.12232931116654572,"102":0.11776326384657948,"103":0.03234779150908359,"104":-0.0253060434718759,"105":-0.055449190212290146,"106":-0.03955555187709897,"107":-0.18745324100400285,"108":-0.018384952720240638,"109":-0.060738945790259694,"110":-0.11383851673352582,"111":-0.2697253446993636,"112":0.08306880875485007,"113":-0.09069892268637832,"114":-0.09055297890591033,"115":-0.04386740645977068,"116":0.0056740663277697855,"117":-0.06019824060522424,"118":-0.014388638736201727,"119":0.022430967679454687,"120":-0.09312419346261785,"121":-0.23002385788929447,"122":0.008824368804363252,"123":-0.0741049917752691,"124":-0.10000091562666298,"125":0.0065170909870357445,"126":-0.03490911932528493,"127":-0.029084681184872715,"128":-0.1282520270767263,"129":-0.04178667993089279,"130":0.0020397215705898093,"131":-0.2015931467065903,"132":0.017677979013420393,"133":-0.1259520503449833,"134":-0.017530275378140843,"135":-0.04157044388793213,"136":-0.10715568857806976,"137":-0.0313721197519609,"138":-0.08289521764491728,"139":-0.11362837250628641,"140":-0.03778407932331445,"141":-0.1026894107619731,"142":0.07644432849524706,"143":-0.06947770563912715,"144":0.021974155263632132,"145":0.01220682304470372,"146":-0.07282383115137313,"147":0.025018536666129645,"148":-0.13827501491111477,"149":-0.038524262955036366,"150":-0.07440519338306548,"151":-0.14904921312468772,"152":0.0296303982511544,"153":-0.021102601549925493,"154":0.035729171546601525,"155":-0.0995864048308257,"156":-0.06782254165166263,"157":-0.03624663665729091,"158":-0.0675685305632399,"159":-0.065386285101889,"160":-0.05289383382370291,"161":-0.1469474081040002,"162":0.009389961489767654,"163":-0.023406126342998646,"164":0.05469350629992589,"165":0.0015684583602339148,"166":-0.056415558532283784,"167":-0.10516796041055484,"168":-0.06308537933359419,"169":-0.0013249040859913436,"170":-0.12248909393872963,"171":0.04443434337694583,"172":0.07136453837209714,"173":-0.031437702270466265,"174":0.12221196865977273,"175":0.1012209461718842,"176":-0.07823998197618513,"177":-0.02001287976576189,"178":0.028743689011212933,"179":-0.00791364603561559,"180":-0.04329880387298643,"181":-0.1664807245926408,"182":-0.031084521404590764,"183":-0.0239500840634883,"184":0.08838030188613659,"185":-0.010979127623534464,"186":-0.03842086323497412,"187":-0.0977165829753763,"188":-0.03899553027390738,"189":-0.12130107973580298,"190":0.016138349288448827,"191":-0.12235115410592284,"192":-0.042749253429083714,"193":0.027876463475214216,"194":0.18950034536670943,"195":0.025111378731380314,"196":-0.020095866647371206,"197":0.007414428837779061,"198":-0.11773309885029268,"199":-0.0398902069790816,"200":0.12165929828525465,"201":-0.08569882061772821,"202":-0.12093394039201744,"203":0.00462053472131151,"204":-0.09821265126852506,"205":0.05894736148078803,"206":-0.04225404835299969,"207":-0.04555150191050415,"208":-0.02504002283709701,"209":-0.06257868856363404,"210":-0.18790495211362793,"211":-0.08578016432176863,"212":-0.06600430561811571,"213":-0.1363523345303667,"214":-0.04005744125585029,"215":-0.01038513548832939,"216":0.0395218752635215,"217":-0.017993415110283868,"218":-0.008741866489477177,"219":-0.05049770729916438,"220":-0.07640115636467217,"221":-0.07956055384566019,"222":-0.12668295725418513,"223":-0.13726234204343396,"224":-0.10107445389683997,"225":-0.035515351081591734,"226":0.07034241895540443,"227":0.05785308333236422,"228":0.03718625906061365,"229":-0.0522958339894188,"230":-0.03407375138896866,"231":-0.04727489115488144,"232":-0.025812465365714313,"233":-0.11935678919385655,"234":-0.09876524343166397,"235":0.07086462913080804,"236":0.015609408301730604,"237":-0.1950886621458296,"238":0.06496956513010735,"239":-0.05915584568623493,"240":0.02927083978577476,"241":-0.12542794969309515,"242":0.07209083512431137,"243":-0.09452308786308948,"244":-0.1334182171868113,"245":-0.06222113383951637,"246":-0.014657108255320172,"247":-0.0564085771220326,"248":-0.07042390927905554,"249":-0.02509634007422021}},{"sx":5,"sy":5,"depth":10,"w":{"0":-0.11202905086253649,"1":0.13637852017189164,"2":0.24975514975979388,"3":0.10728867475129715,"4":-0.015918646238321142,"5":-0.04947202319375393,"6":-0.0733500662555648,"7":-0.07064122920223619,"8":-0.07566201663095216,"9":0.12017257723634431,"10":0.07254256072615925,"11":0.07100446707120985,"12":0.13519348720047145,"13":0.1915938737404407,"14":-0.08593636068749233,"15":-0.0016438567459847232,"16":-0.13368552780894155,"17":0.18441711132787766,"18":-0.12208367400059854,"19":0.03422734917071385,"20":0.03521533969653775,"21":0.1575513407316286,"22":-0.020012620700026334,"23":0.12887355860665425,"24":-0.06044195536318852,"25":-0.042262481591456305,"26":-0.03045182438180922,"27":0.15916981953897016,"28":0.03655811405311499,"29":0.018347775413603346,"30":-0.034448581776537895,"31":0.06976400205670258,"32":0.04644951140350714,"33":0.09448815634066299,"34":0.007680117067472806,"35":-0.20652081649554863,"36":-0.05442848937539678,"37":-0.032620318718513404,"38":0.05683619554415127,"39":0.016184433182931016,"40":-0.07577563772530724,"41":0.10327203992857747,"42":0.027590371437715016,"43":0.06010178352634995,"44":0.016978182885347144,"45":-0.026155771225322106,"46":-0.04121103928653252,"47":0.08151201966790435,"48":0.01648111488537806,"49":0.08855010725909529,"50":-0.1404909688838562,"51":0.1459050141912837,"52":0.06865462818800164,"53":-0.042244530843253074,"54":-0.15688706034524244,"55":-0.05694336945746838,"56":-0.07013619363609587,"57":0.02068242894879914,"58":0.04430480471292461,"59":0.03913989855362285,"60":-0.06284925369713186,"61":0.180117968610654,"62":0.0988071335463247,"63":-0.018952804119272554,"64":-0.03272573969232832,"65":-0.0722600533875803,"66":0.11039447142862942,"67":-0.02518545817600239,"68":0.05988976024822778,"69":0.13510152919258508,"70":-0.1001234496321124,"71":0.13212429249643004,"72":0.15360031980734304,"73":-0.12360964585340468,"74":-0.03600796800044154,"75":-0.11413812402586655,"76":0.08506374635464899,"77":-0.1371456104634556,"78":0.14583042884366823,"79":0.09390356663095889,"80":-0.15927339268696028,"81":0.07933456024335614,"82":-0.040255120926765496,"83":0.017294280217309676,"84":-0.04235864305916074,"85":0.07106727059172924,"86":-0.015895764745139422,"87":-0.012877283706519018,"88":0.029098361258126152,"89":0.10840871873932588,"90":-0.028588951324948503,"91":0.14442779467791875,"92":0.09550840731017003,"93":0.03746534077520034,"94":0.04224633122740167,"95":-0.151471294174537,"96":0.06262725502102849,"97":-0.09695496267649674,"98":-0.006794401294370126,"99":0.02045702756549218,"100":-0.02026577052097602,"101":-0.04379899468088718,"102":-0.04595630549835778,"103":-0.05737710299808051,"104":-0.04302980088712379,"105":-0.09249110510228263,"106":0.05744109063561914,"107":-0.017623934046252933,"108":0.07291271484170996,"109":-0.08438320753038292,"110":0.1415117268498949,"111":0.03893210127897521,"112":0.07748542202676643,"113":-0.07370322677378109,"114":0.01009481609751071,"115":-0.09360872771534418,"116":0.03950301602363832,"117":0.044311276730983125,"118":0.09904805234416997,"119":0.0155275469533851,"120":0.020487885508348486,"121":-0.01122678188440997,"122":-0.08184248792410616,"123":-0.07179455754501046,"124":0.026518258249815328,"125":0.020616653650911736,"126":0.09023290050137502,"127":-0.12750402414489542,"128":0.19520528934281314,"129":-0.056271187031347945,"130":0.08582108706135379,"131":-0.005953213616016438,"132":0.10536056424677874,"133":-0.020838108893761212,"134":-0.010644991984889413,"135":0.010755734164727276,"136":0.09207810006546348,"137":-0.15471625801195393,"138":0.10193290271453503,"139":-0.054381635938811755,"140":-0.12218364835037027,"141":-0.04712739448503501,"142":0.02459498075129339,"143":0.03547585848213731,"144":0.1257497526837712,"145":-0.01430785082722299,"146":0.08148809875332529,"147":0.04874611129548055,"148":-0.027552291918657688,"149":-0.04528268087581123,"150":-0.17091934511031168,"151":-0.12997669207148466,"152":-0.2878260945008601,"153":-0.07435541299978847,"154":0.02888574947959723,"155":-0.1002174085975211,"156":0.0641063872782373,"157":-0.1358260578861834,"158":-0.006298402727211798,"159":-0.08061387422103142,"160":0.04986797594963793,"161":-0.3414322644183763,"162":-0.2900414526064474,"163":-0.0860647819514574,"164":0.003420695180594193,"165":-0.1727402098784235,"166":-0.10012076681750054,"167":-0.07509597951437832,"168":-0.05844813873395506,"169":-0.06820359593763352,"170":-0.21512886622680052,"171":-0.06593598165991119,"172":-0.24182461146365408,"173":-0.20193604575947932,"174":-0.07232016053937113,"175":-0.19856133518168032,"176":0.08139746742695811,"177":-0.0631141286820964,"178":-0.09579968033655248,"179":-0.15826568580249792,"180":-0.06018931985334987,"181":-0.17417416312457834,"182":-0.27749828939762006,"183":-0.2316251448644414,"184":0.0720904328879749,"185":-0.21323574308831816,"186":-0.10417064640657267,"187":-0.15113827822618792,"188":-0.004715550803129281,"189":0.003846194979514525,"190":-0.18190134182851034,"191":-0.01777845080173711,"192":-0.012457485058554943,"193":-0.15499521545424721,"194":-0.10549102243924664,"195":-0.02274306911741026,"196":-0.037057326860524334,"197":-0.08896216650826165,"198":0.08685362403133441,"199":-0.11874966220538104,"200":-0.1203453916495837,"201":-0.22984171389029734,"202":-0.23864994610628787,"203":-0.01659023166024671,"204":-0.010781323204708494,"205":-0.23499054380894552,"206":0.0355753346350321,"207":-0.11602263503270352,"208":-0.05064552152254879,"209":0.0347833295457995,"210":0.016156509892610173,"211":-0.18849527157173787,"212":-0.21930511538007216,"213":-0.11155540442985132,"214":0.0858504789076821,"215":-0.04589911288666758,"216":-0.043155105592248506,"217":-0.2978209252269013,"218":0.06726182165864525,"219":-0.06574527242816147,"220":-0.11125579019504829,"221":-0.22941182591957493,"222":-0.1373995009710388,"223":-0.12926871952672261,"224":0.05751267524633041,"225":-0.008144216350745916,"226":-0.09556388503926544,"227":-0.08551602949209947,"228":-0.16242080958618793,"229":-0.13656079468961982,"230":-0.14474026703047158,"231":-0.20777840333331896,"232":-0.2122402050191505,"233":-0.07035275310719098,"234":0.03748751363580853,"235":-0.026036412992429845,"236":0.01402394668580853,"237":-0.2193942198789494,"238":-0.2020974237455048,"239":0.014972225034343353,"240":0.08028935740458201,"241":-0.06191638788024418,"242":-0.15952239192281453,"243":-0.07159980338402318,"244":0.018130608184123615,"245":-0.23255200935818765,"246":-0.13831290018075973,"247":-0.11444535966864348,"248":0.016060740154914863,"249":0.03741559242720331}},{"sx":5,"sy":5,"depth":10,"w":{"0":0.03724822134868581,"1":0.021867727979638037,"2":0.07287145262440452,"3":-0.07272185167393017,"4":-0.09184228734036594,"5":0.04978196548811979,"6":0.06735340260359964,"7":0.034835589810562936,"8":-0.05085901021568427,"9":0.015918942014904063,"10":0.011421425132272239,"11":-0.025357522356584658,"12":0.11883460823077498,"13":-0.13424341086659017,"14":-0.06050657342895211,"15":0.12891415481412666,"16":0.06478148564873999,"17":0.06368922535059447,"18":0.006465739719613185,"19":-0.15051725720739126,"20":0.1840538507004636,"21":0.12206347325805011,"22":0.052404079129407075,"23":0.09970582440026601,"24":0.04145010741057958,"25":0.07426522462966512,"26":0.148503954831078,"27":0.02029039631822834,"28":-0.011132863758632407,"29":0.05527186737939342,"30":0.0946448422406233,"31":-0.18901024847118914,"32":-0.04482292009374228,"33":-0.08365036479759884,"34":-0.07532480975065092,"35":0.06735615842017492,"36":0.1323976953041201,"37":0.1377796754348854,"38":0.04989730818177796,"39":0.10255437673158353,"40":0.02247963436976137,"41":-0.046484765110118925,"42":-0.0669182339856142,"43":-0.040400348810564556,"44":-0.1266134535562943,"45":0.041181165273357925,"46":0.1235664750407598,"47":0.05116779521352003,"48":0.0560751150743878,"49":0.014824664163665626,"50":0.0202115695483393,"51":0.00654414757202842,"52":-0.1431911341580185,"53":-0.11193554963801587,"54":-0.11709394506594822,"55":0.2736100346603692,"56":0.1404201586399153,"57":0.14119446120588014,"58":0.09818617024578923,"59":-0.15104217543218865,"60":0.06206690100244644,"61":0.0471619458748632,"62":0.1048871592396821,"63":-0.06921397599329752,"64":0.04638214638999212,"65":0.08524088621172633,"66":0.06587231307329122,"67":0.04704576740242575,"68":0.062181766202434444,"69":0.08937492231787289,"70":-0.011825639456906591,"71":0.03789831489015928,"72":0.012169198504193181,"73":0.06439221070000799,"74":-0.09300248476424984,"75":0.21103802184617104,"76":0.27579254236523804,"77":0.1657101519136296,"78":-0.0749495628723306,"79":0.0719441590953537,"80":0.16977821905441437,"81":-0.06563214699352703,"82":0.1217447404954456,"83":-0.031014983373609216,"84":0.12680550770528065,"85":0.08578185870567083,"86":0.09990051073524411,"87":0.11496848112045313,"88":0.06819068308573879,"89":0.11238191528367343,"90":0.10694345476017689,"91":-0.1481260450984988,"92":-0.04557538204853274,"93":-0.1223439063554548,"94":0.015916897815193242,"95":0.005090274919191923,"96":0.12805470616892325,"97":0.019691767919286784,"98":0.08026677184328057,"99":0.14552713693132607,"100":0.2873656364299969,"101":-0.001890889426348311,"102":-0.004502966843206594,"103":-0.10524050457202536,"104":0.11508351478427764,"105":-0.03561818567592345,"106":0.21333515101465242,"107":-0.05243995703699532,"108":0.03116205955824496,"109":-0.038611913086632796,"110":0.19134125383360737,"111":-0.05786592413497856,"112":0.09020674527339467,"113":-0.055423349909441,"114":0.0615105225570979,"115":0.04129781937206176,"116":0.1007893610302319,"117":-0.009412869915497278,"118":0.04676340821148002,"119":-0.10557649722350734,"120":0.1572384541913204,"121":-0.12543501828422854,"122":0.0631640576216871,"123":-0.09338730619952222,"124":-0.11869453136157172,"125":0.28785781735887533,"126":0.18591804325439212,"127":0.10199518306351138,"128":0.09169160529229238,"129":-0.015200090573806956,"130":0.19781552850654524,"131":0.11761820818535104,"132":0.0005948948663926259,"133":0.038508601438705665,"134":0.08528499932984372,"135":0.22269654925094634,"136":0.03703498962494647,"137":0.2957726932467079,"138":0.0005860225376479746,"139":0.09953029828379412,"140":0.024774069153339035,"141":-0.1768903526965611,"142":-0.19443201599971977,"143":-0.09293332141068289,"144":-0.0037459742878374006,"145":0.12053718441757737,"146":0.04843087793399805,"147":0.13144674484492702,"148":0.09285109227690475,"149":0.03082867132456902,"150":-0.007446378966480083,"151":-0.12933986016952553,"152":-0.008796065147486517,"153":-0.07948974146296386,"154":0.0035816739262877826,"155":-0.16334464115302486,"156":0.006950797444089893,"157":-0.059143020296252666,"158":-0.023347381257901555,"159":-0.11971053240755747,"160":-0.15044003636413827,"161":-0.02810193437202293,"162":0.0708983987794784,"163":-0.08491155175104963,"164":0.05521696278948433,"165":0.08360917538291084,"166":-0.12748656970507527,"167":-0.06452100495143956,"168":-0.0019114222592679572,"169":0.03962477832991885,"170":-0.03660352343388438,"171":-0.04821145161893759,"172":0.062097649997365965,"173":-0.012255191867003053,"174":-0.06552444426805272,"175":0.06544870738024147,"176":0.15009528820549653,"177":0.07019205711474823,"178":-0.034011404648598594,"179":0.07042193323241243,"180":0.05927163724194615,"181":0.11072639090283137,"182":0.056996090893290385,"183":0.0722600597427126,"184":-0.015029060786200754,"185":0.12776159865963616,"186":0.18814160803492302,"187":-0.04214610494992812,"188":0.013601083886830966,"189":0.1186975357742047,"190":0.018706629887367817,"191":-0.048235558343133075,"192":-0.1443993693599434,"193":0.022296483705582276,"194":0.15193478015639833,"195":-0.1452157700069008,"196":0.020232911001379375,"197":-0.0460533010727381,"198":-0.057305884665183264,"199":0.1286162408884897,"200":0.09097911518066257,"201":-0.15031006215615114,"202":-0.1638567938230912,"203":-0.0711807137645013,"204":0.04095360919921043,"205":0.016151550003795985,"206":0.04146090319076262,"207":-0.039414790356560196,"208":-0.038299282427484725,"209":-0.13355220913522606,"210":-0.06026213205438831,"211":-0.10641450240795601,"212":-0.03044393530771494,"213":-0.10455306553573739,"214":0.01883617845555515,"215":-0.02437222165287179,"216":-0.10865217852898815,"217":-0.14053554355185674,"218":-0.06014473270029225,"219":-0.09101617767008258,"220":0.04720976158389098,"221":0.02610733520413607,"222":-0.0820034948104147,"223":0.105867760126114,"224":-0.010790762727037356,"225":0.2228421760639594,"226":0.033021773322569774,"227":0.11934066601420663,"228":-0.13489378193120224,"229":-0.01779530787788096,"230":-0.02768715703427314,"231":0.01933010092610408,"232":0.04957978814840157,"233":-0.033808648796763166,"234":0.0038258980119489647,"235":-0.0035685657245859946,"236":0.009450340672629755,"237":0.07620059418797122,"238":0.06256595698853534,"239":-0.10972456895216344,"240":0.04228747578103082,"241":0.03953421034797451,"242":0.015410526456330648,"243":0.013033260403710462,"244":-0.10078978689874397,"245":0.19271303683978644,"246":0.07433795432030309,"247":-0.05476700234066084,"248":-0.06446441952096321,"249":0.15428014611152224}},{"sx":5,"sy":5,"depth":10,"w":{"0":0.161012882943476,"1":-0.2500929182938292,"2":-0.041733992160386035,"3":-0.12024964894511089,"4":0.08094228551979815,"5":-0.007972712765837255,"6":0.0115873795579441,"7":-0.011163398775581868,"8":-0.17420942388024868,"9":-0.19571687180347397,"10":-0.016650652433593125,"11":-0.0760519963702071,"12":-0.015957868032210495,"13":-0.06511827893905613,"14":-0.08046559661672366,"15":-0.0922911056203624,"16":-0.019549547954345325,"17":0.0675995226154072,"18":-0.19489318537784361,"19":-0.06162104557050118,"20":0.08206488211681962,"21":-0.24551215078647468,"22":-0.14459920478531033,"23":-0.05150093543505742,"24":-0.06913413613855787,"25":-0.03005740829751925,"26":-0.046892707852919886,"27":-0.07656732089630505,"28":-0.05768061722930088,"29":-0.07471988829346278,"30":-0.023751823173214448,"31":-0.18400166411688534,"32":-0.05317522145623222,"33":0.06918232776255293,"34":-0.08423417094219089,"35":-0.09295987228347588,"36":-0.0685448702900409,"37":-0.0969083356230035,"38":-0.15948459505355064,"39":-0.12745364557993494,"40":0.013524428050283805,"41":-0.20208643967813122,"42":-0.08088320310482769,"43":-0.09406582577880254,"44":0.016984368184951616,"45":-0.09786163619394844,"46":0.011079777766884565,"47":-0.10804726279511043,"48":-0.19463707386651705,"49":-0.07057412217450541,"50":-0.053728482737727665,"51":-0.1135165130788205,"52":0.03306599963101679,"53":0.007908863615469256,"54":-0.11049684304962852,"55":-0.03690443839858616,"56":-0.06738549279469869,"57":-0.051178481870532554,"58":-0.09057400946274448,"59":-0.08205058921946645,"60":0.04658572461689057,"61":-0.13379337362402974,"62":-0.0024121521355865805,"63":-0.04836363425594672,"64":-0.20313762533637483,"65":0.01978949168327651,"66":0.014609748273172251,"67":0.015072789849211527,"68":-0.01621755028433931,"69":-0.09615228789069086,"70":-0.08766372811815001,"71":-0.13945654414243042,"72":-0.11550967180254955,"73":-0.10673384930015632,"74":-0.08865164164813676,"75":-0.0619839415686323,"76":-0.06255226773116676,"77":-0.029974039706923642,"78":-0.03896058357734324,"79":-0.09655578896844433,"80":-0.13156359807221216,"81":-0.26507092599254867,"82":-0.11820377558442427,"83":-0.1350094657213255,"84":-0.15055061956974353,"85":-0.04063419338951979,"86":-0.05746286546404482,"87":0.00279391658424261,"88":-0.03887836948202159,"89":-0.09922913457862023,"90":0.046152328262567544,"91":-0.010210402040372208,"92":0.03319659247589578,"93":-0.05936378143664894,"94":-0.0032626584122203805,"95":0.013197026283276203,"96":0.0050839547706404194,"97":-0.028332323462488068,"98":-0.022505692124620908,"99":-0.0723986740477756,"100":-0.08281707267049421,"101":-0.10698722903878612,"102":0.008042616313766059,"103":-0.07840445588206459,"104":-0.10487419914277278,"105":-0.13653070962386332,"106":-0.11112314465503444,"107":-0.08051713805265598,"108":-0.1798022195335326,"109":0.012357996212461714,"110":-0.10180203203952126,"111":-0.18764715122973968,"112":0.04348929833989641,"113":-0.16667025371369865,"114":-0.014099593934861009,"115":-0.04801170414244162,"116":-0.04638645071197889,"117":-0.13858522183222116,"118":-0.18903609622143489,"119":-0.07637146976625364,"120":0.06455086450377798,"121":-0.2000753207628103,"122":-0.06731791929375347,"123":-0.10614316228411069,"124":-0.22805978561712661,"125":-0.03224848929243556,"126":-0.0015839792917581405,"127":-0.22832622313458528,"128":-0.12370028613171825,"129":-0.16790316324576332,"130":-0.030432853047038202,"131":-0.13028592669595448,"132":-0.0860138934634391,"133":-0.15085195481882754,"134":-0.04925579956449746,"135":0.08515876817541515,"136":-0.1198652822176496,"137":-0.06749770964697897,"138":-0.03754238413103014,"139":-0.21968146471679664,"140":-0.018244903575369315,"141":-0.17943967243605202,"142":-0.14080116211300567,"143":-0.022433305537473497,"144":-0.1319593876667611,"145":-0.03172422749006963,"146":-0.06037393487170257,"147":-0.10552456808113359,"148":0.08297753986412153,"149":-0.09596015744698493,"150":0.005784245883554048,"151":0.12525764588386626,"152":0.0038314500174778305,"153":0.009893781307289956,"154":-0.09110276024301968,"155":0.054379081116239895,"156":-0.18202558740172856,"157":-0.10165020265994396,"158":-0.021746444864207938,"159":-0.03900655600348181,"160":-0.10134156655112675,"161":0.002642029352453322,"162":-0.06973038626103935,"163":0.034322263275246255,"164":-0.058456095466896014,"165":-0.11828060524407735,"166":-0.0281720902940281,"167":-0.13772478897895543,"168":-0.08373608181643252,"169":-0.01611169982216185,"170":-0.05939270454884203,"171":0.1276962520881296,"172":-0.09274984922725017,"173":-0.09489426389511683,"174":-0.06878326532191432,"175":-0.041389252401444414,"176":-0.06953036216515865,"177":-0.16746977462961662,"178":0.041801234062013914,"179":-0.0324300028652685,"180":-0.13397176950758466,"181":0.04120930288361643,"182":-0.08820834145391822,"183":-0.02187126672878171,"184":-0.23650045764120178,"185":-0.06518143547561145,"186":-0.01874433783576844,"187":-0.11279273045042393,"188":-0.03372890359449128,"189":-0.07015855865069004,"190":-0.18120851208440236,"191":-0.024682579859118776,"192":-0.06044216939439998,"193":-0.0699206847747879,"194":-0.00444495213330191,"195":-0.05253125137945427,"196":-0.1560670463620361,"197":-0.124247515940004,"198":0.03927983457401896,"199":-0.11407508592976755,"200":-0.16393664455355564,"201":0.08713829596854472,"202":-0.0006931137464211545,"203":0.10997487417445061,"204":-0.17358506023232237,"205":0.002539843741863016,"206":-0.011060785188999347,"207":-0.03836144154859037,"208":0.03813964415682679,"209":0.22474854103179576,"210":-0.15700768118294986,"211":0.13186370611826276,"212":0.008417693416932204,"213":0.20295000807697786,"214":-0.07690764176380267,"215":-0.09196099563510872,"216":-0.10301538756619207,"217":-0.004491503107462087,"218":-0.01699270383995377,"219":0.048800504017600825,"220":-0.08980577666137225,"221":0.11006614315388315,"222":0.06044230013118498,"223":-0.04628249614838114,"224":0.0865472655825679,"225":-0.044574341808976736,"226":0.07720568842664426,"227":-0.10643758688205025,"228":0.10759437066438578,"229":0.08655879707895339,"230":-0.08022760257707888,"231":0.11985451573307408,"232":-0.01981455741545748,"233":-0.10950502626401742,"234":0.01307072435027686,"235":-0.11043441355233742,"236":0.04953835165860809,"237":-0.10929895177144724,"238":0.047653084458779416,"239":-0.025193465377525273,"240":-0.12408036034071805,"241":0.07754967643714514,"242":-0.0069037733137303926,"243":-0.07238673153218057,"244":-0.04854056487715824,"245":0.0061669563397952045,"246":-0.03508928155465411,"247":-0.0948322745156998,"248":0.08934891812151952,"249":-0.006439417428096091}},{"sx":5,"sy":5,"depth":10,"w":{"0":-0.007381822357477986,"1":-0.1352731847657388,"2":-0.0993169838679601,"3":0.10758379147749292,"4":0.005325097852451275,"5":0.09245122724581588,"6":-0.017769096522292638,"7":-0.006721533205651494,"8":-0.03536252375593091,"9":-0.010911510976352037,"10":-0.0879895950688342,"11":-0.14246800861286166,"12":-0.024071985612752325,"13":0.13065489692986215,"14":0.17913303967873578,"15":-0.056026917835130426,"16":-0.07626434034069457,"17":0.11567802071740226,"18":-0.06614935151810512,"19":-0.23704988519789352,"20":-0.0012725121168408082,"21":-0.0469231469858613,"22":-0.2414353298130252,"23":0.01740168620103837,"24":0.03225027819396956,"25":-0.05205169783199726,"26":-0.0266301111328008,"27":-0.04891171146924963,"28":-0.15817092438839225,"29":-0.08708571383990546,"30":0.09464392342234675,"31":-0.14364863478619513,"32":-0.12392052304678144,"33":0.209895433013394,"34":0.06267427321247661,"35":-0.08033115446084196,"36":-0.07994125195501793,"37":0.011945791216151897,"38":-0.10566464806054372,"39":-0.05293652624584699,"40":0.01903851999548658,"41":-0.18290008853441642,"42":-0.06615147780767806,"43":0.15244859495906782,"44":0.1393786354670283,"45":-0.21042475235672103,"46":-0.08753664293691374,"47":-0.006790940288978142,"48":-0.12408051728883356,"49":-0.05178828746486465,"50":-0.10162237533693526,"51":-0.10563494695307943,"52":-0.11863044178465074,"53":0.0010278939626890643,"54":-0.06321261147629818,"55":0.058158169426126526,"56":-0.08416151469911146,"57":-0.04240818216778378,"58":-0.17899165317149363,"59":0.027101691322222714,"60":-0.05802260264740245,"61":-0.25755296702593244,"62":-0.08015973531999185,"63":-0.034485949360309145,"64":-0.06618605016993344,"65":-0.021132160882938192,"66":-0.06804624752363937,"67":-0.07561606060994022,"68":-0.2629191406439211,"69":-0.08812127080903265,"70":-0.03505795373635192,"71":-0.12568649241772623,"72":-0.11763106972093341,"73":-0.04031107168469826,"74":-0.041020061666580496,"75":-0.06898264631338598,"76":-0.1184682530771526,"77":-0.038682573269385484,"78":-0.17036018509031045,"79":-0.06677352715806503,"80":0.01652393511644786,"81":-0.255279332643997,"82":-0.1892046539638034,"83":-0.0052600172722701895,"84":-0.06968390833839831,"85":-0.08652185973592416,"86":-0.1379544642237724,"87":-0.009248120775127214,"88":-0.23077962548745878,"89":-0.15742394402896706,"90":0.10332610406078406,"91":-0.08633472752677042,"92":-0.059227023831078425,"93":-0.11587372720597686,"94":0.004543809252844359,"95":-0.06628676279548734,"96":0.01185194957753956,"97":-0.09260782219651068,"98":-0.07843457009811139,"99":-0.18145270549354395,"100":-0.06021767974499456,"101":-0.15628519054167359,"102":0.023945476441141502,"103":-0.10932005399643277,"104":-0.057080620090357734,"105":-0.11303723883214914,"106":-0.06133997336608251,"107":-0.09949755495249721,"108":-0.10028231850914994,"109":0.04636779316133932,"110":0.002614394925176126,"111":-0.13218941004453075,"112":0.02582564267879794,"113":-0.20675522114377567,"114":-0.16972824628168767,"115":-0.06222822509051754,"116":-0.07047888578412537,"117":-0.14865002255824475,"118":-0.13028667793660903,"119":-0.01931219808617463,"120":-0.04472843185251184,"121":-0.13426815961903188,"122":0.05561033290418987,"123":-0.14783842418107163,"124":-0.0954911998753474,"125":-0.10809585296757415,"126":-0.07030261818577507,"127":-0.17730135581839407,"128":-0.10980216368903352,"129":-0.004377314732770008,"130":0.004836752498812146,"131":-0.06381530309368005,"132":0.031211729214460374,"133":-0.059062529484287134,"134":-0.1684948661219545,"135":-0.12037155797017568,"136":-0.15008368227174695,"137":-0.15406031127278613,"138":-0.11730870688459723,"139":-0.006841374775958775,"140":-0.004904419120224369,"141":-0.07897992619426325,"142":-0.031163126099736742,"143":-0.11344400659372089,"144":-0.14753604695998088,"145":-0.08451713196630108,"146":-0.07844137257191024,"147":-0.007202318330201433,"148":-0.02047076252159291,"149":0.09612617214011099,"150":0.1121036265210688,"151":0.06594897102023738,"152":0.0933695732189714,"153":-0.20553072968916172,"154":-0.08766369672977326,"155":0.014599726620375935,"156":-0.1017580947654763,"157":-0.1998097138964912,"158":-0.06430555767363696,"159":0.1875825640968551,"160":0.05688637697348265,"161":0.07497166435858245,"162":0.08318783291097433,"163":-0.1271627193262305,"164":-0.12674777899490042,"165":-0.01712748560544143,"166":0.0032835972276914396,"167":-0.12071623895977367,"168":-0.010751295429374037,"169":0.045136499881909355,"170":0.06665884311241738,"171":0.008923243492506406,"172":0.07176264556301125,"173":-0.16622937149809877,"174":-0.08170724857733282,"175":0.030072180696670642,"176":-0.055232720727196656,"177":-0.1281045049847259,"178":-0.07508809423079499,"179":-0.03482738595906418,"180":0.006026762512054343,"181":-0.045055635547904656,"182":0.004349137584646998,"183":-0.08314330390469594,"184":-0.09103830027913858,"185":-0.08699629454927628,"186":-0.037002548882396374,"187":-0.1538769810859148,"188":-0.12721357263922692,"189":0.057329746177973845,"190":0.03370689025121006,"191":-0.066219420773592,"192":0.03749765614905498,"193":-0.09957526302102009,"194":-0.1085238716300518,"195":-0.03639538350640669,"196":-0.061304435324329956,"197":-0.12363361926872601,"198":-0.019387316098740597,"199":-0.041183615829600104,"200":-0.027019650738556118,"201":0.18666550273120414,"202":0.227842523859591,"203":-0.1826277714214683,"204":0.06466880016252496,"205":0.0926859107731876,"206":0.03148550868270125,"207":-0.1158796013712259,"208":0.008306307856029127,"209":0.14023303886788685,"210":0.0320997839162836,"211":0.09264001227786613,"212":0.0628986150696609,"213":-0.18300358684617607,"214":-0.0833177187004193,"215":-0.1303306764844005,"216":0.06604653725126093,"217":-0.07729941326945212,"218":0.010388281409317593,"219":0.22059722007289329,"220":-0.05542105280630789,"221":0.053256838594519046,"222":0.101041850812115,"223":-0.10632736841440321,"224":-0.038261011295450856,"225":-0.13806790496440113,"226":0.01106939634064106,"227":-0.19616183881497273,"228":0.06795200120347876,"229":0.09665388792490501,"230":0.00022028404410853297,"231":0.03522559643506511,"232":0.03841229284953265,"233":-0.0852153760958432,"234":-0.11795054509286042,"235":-0.08145968443021975,"236":0.005130636316844445,"237":-0.023747163763201646,"238":0.14087172411724636,"239":0.12732257657877138,"240":0.05463006564730807,"241":0.020115248112880665,"242":0.010707571368358816,"243":-0.07118922606513656,"244":-0.018041573587856123,"245":-0.0049961336141295404,"246":0.1614006376820819,"247":-0.07858542329828906,"248":0.18581389792278216,"249":-0.002036715185961323}},{"sx":5,"sy":5,"depth":10,"w":{"0":-0.005608899860851413,"1":-0.10121567615775681,"2":-0.012423907398052996,"3":-0.06337381862711935,"4":0.04448726827385374,"5":-0.023885726117038843,"6":0.08637159335154616,"7":-0.012551578484290204,"8":0.06822438122862783,"9":0.0560861822158636,"10":-0.035816962403125305,"11":-0.11752151256799004,"12":0.024381438285929726,"13":-0.08389685686943463,"14":-0.1056823763652248,"15":-0.007948367951188806,"16":-0.019067793550027815,"17":-0.0517355482141562,"18":-0.08531985975272328,"19":-0.056465719250700916,"20":-0.006142834189091283,"21":0.03559930439308243,"22":-0.14526414364454976,"23":-0.12619955114632045,"24":-0.05601520903132715,"25":0.02634660990932197,"26":-0.006082146778129151,"27":-0.010106750680414639,"28":-0.055878922590780394,"29":-0.019004205456886043,"30":-0.05230177545295768,"31":0.06325863914913271,"32":-0.07652740560581871,"33":-0.17433495104618385,"34":-0.0856436943301097,"35":-0.04624827164614064,"36":-0.050264963545862906,"37":-0.08406307190924552,"38":-0.035358985200857965,"39":-0.08522108133510155,"40":0.007906197304723254,"41":0.11490293543155344,"42":-0.07235309678958388,"43":0.031086662324813687,"44":-0.12296417214743008,"45":-0.043942078480363786,"46":0.03565506813335833,"47":0.008371570198676277,"48":0.003783969564184412,"49":-0.0880691087164009,"50":-0.06205978785849966,"51":-0.05547605119159448,"52":-0.08166938609949229,"53":-0.1736187193054002,"54":-0.037757289097711116,"55":-0.08364630936496929,"56":0.14110014542790097,"57":0.07563616593351194,"58":-0.08734247993397039,"59":0.02355762551091349,"60":-0.05522511613909079,"61":-0.008778147294242441,"62":0.022086389415634462,"63":-0.10124010834016146,"64":-0.1623702900921916,"65":-0.050380846123567684,"66":-0.024572483523099896,"67":-0.054652758872922653,"68":-0.04861653129403645,"69":-0.022441144156652798,"70":0.005142804943297314,"71":-0.15660768795494762,"72":-0.08432418419791907,"73":-0.09806131076474456,"74":-0.11915269827174273,"75":0.004577488292276603,"76":0.024634858646711097,"77":0.07129007082056438,"78":-0.03826918546154913,"79":-0.1395335886792635,"80":-0.07070042369352095,"81":-0.029965739009224508,"82":-0.051590092908400435,"83":-0.05395253038322134,"84":-0.07363369822777797,"85":0.0529622014628375,"86":0.1316089265734352,"87":-0.016944882348171198,"88":-0.051739897060835066,"89":-0.03273185432320097,"90":0.00011160210433606532,"91":-0.1434164588796202,"92":0.014195223670186765,"93":-0.01608947037120916,"94":-0.05684907976540893,"95":0.06988490407873009,"96":-0.031636819227099315,"97":-0.019256131719775964,"98":-0.06844547609388657,"99":-0.038651091371939804,"100":-0.07150783801771445,"101":-0.11619345229795854,"102":0.008300257156066767,"103":-0.12156651987433273,"104":-0.07115534592794993,"105":0.09374121034680254,"106":-0.020630233939013715,"107":0.056309710758592695,"108":-0.04114602938287104,"109":-0.04971864587696393,"110":-0.04707624517013451,"111":-0.041160079033590154,"112":-0.1034907534453631,"113":-0.14523765324492033,"114":-0.07310680934856882,"115":0.026875898703615866,"116":-0.02144484476463239,"117":-0.06393132156309232,"118":-0.0828234035073178,"119":-0.08944542185533547,"120":0.02566085213734985,"121":-0.08706864801312818,"122":-0.044012006356476084,"123":-0.060691882484239866,"124":-0.06247910074139156,"125":-0.055901918446341806,"126":0.024606243519773797,"127":0.00827262997080099,"128":-0.04817197848510899,"129":-0.06399210797039707,"130":-0.0008652938021542989,"131":0.05189273105584145,"132":0.05211156254555422,"133":-0.1483214610020932,"134":-0.08442444442330303,"135":-0.05078602611780793,"136":-0.06529141491066386,"137":0.10898978220827495,"138":0.04453088168647699,"139":-0.09726997231892,"140":-0.05045605811475783,"141":-0.08284798964557552,"142":-0.04340891501997688,"143":-0.10837000753293631,"144":-0.10872174730158868,"145":-0.06302754560381252,"146":0.04405397199150866,"147":-0.023824069789438497,"148":-0.023421988054816656,"149":-0.05907397369403449,"150":0.009643637809821247,"151":0.036439869848171276,"152":-0.06634508227339557,"153":-0.05670265224085575,"154":-0.02337664647438526,"155":-0.045201987838864345,"156":0.07213924590776234,"157":-0.004499668968804847,"158":0.0452594535421738,"159":-0.07232897345794931,"160":-0.007044697982549974,"161":-0.016776465392556505,"162":-0.08044514151663056,"163":-0.09321887806724723,"164":0.0010991453669099403,"165":-0.03881161239571028,"166":-0.04723259377816977,"167":-0.07134271105436032,"168":-0.18467573394739584,"169":-0.06686104397531277,"170":0.020350717241225384,"171":0.0014120518273317499,"172":0.018275455984652286,"173":0.009914681592808157,"174":-0.058787966095228315,"175":-0.010896649429197486,"176":0.05243589820508995,"177":-0.07841796518256416,"178":0.07172888319809731,"179":-0.09057459512673185,"180":0.019448557688375077,"181":0.015504546018036044,"182":0.015597149565800264,"183":-0.09790742898537406,"184":-0.05599594851406074,"185":0.01800388672487132,"186":-0.031113454776572774,"187":0.011409742463291628,"188":-0.04519451306380841,"189":0.020732730668747174,"190":-0.012252404442955205,"191":-0.2192972132399301,"192":-0.02239167290448681,"193":-0.0027662293869033677,"194":-0.08980154836230587,"195":0.007818900946791602,"196":0.07946974630910804,"197":-0.0481881167168556,"198":-0.07884316165456938,"199":-0.13597963344559758,"200":0.00822068807556773,"201":-0.07547705784319919,"202":-0.02557440427301262,"203":0.014703479065926634,"204":-0.13570018664196962,"205":-0.02308230448285829,"206":0.07812277466060287,"207":-0.06605773779346297,"208":0.00965425157613427,"209":-0.045166957790416476,"210":-0.001780599637065073,"211":-0.11881214345914497,"212":-0.054907035577736504,"213":0.019780598465042813,"214":-0.007828191919671488,"215":-0.0677074997546167,"216":-0.07593030422628128,"217":-0.16343399186930263,"218":-0.07971311511865574,"219":-0.07313217948168976,"220":-0.056537677502023834,"221":-0.06615779290810501,"222":0.06776718975759893,"223":-0.15252681399310963,"224":-0.050876467659378935,"225":-0.04820206629850762,"226":0.03894847477822909,"227":0.003017616646731514,"228":0.006453416358304683,"229":-0.04790590667418691,"230":-0.035909013561436755,"231":0.11446882520024651,"232":-0.09391601765245382,"233":-0.05251274809745939,"234":-0.010120383212645774,"235":-0.007658788941721173,"236":0.00040047313531613865,"237":0.11299269229099622,"238":-0.034092129741994735,"239":-0.07933742928625935,"240":0.003977809178761597,"241":-0.13251928256306317,"242":-0.059823444740711745,"243":-0.05790941976343708,"244":-0.059862077402310886,"245":-0.007861200573931467,"246":0.05624609175327872,"247":-0.0604548910034262,"248":-0.10883598963743575,"249":-0.07039678572338744}},{"sx":5,"sy":5,"depth":10,"w":{"0":0.11234925814364916,"1":-0.1378584576406054,"2":-0.07269641204430875,"3":0.0452652749440616,"4":0.012869532478721128,"5":-0.05626930939838112,"6":-0.045610168265888436,"7":0.06095492673155901,"8":-0.0014395229032720907,"9":-0.04873614919222067,"10":0.07460363249539835,"11":-0.18447816002982015,"12":-0.031165427500714844,"13":-0.019613425200977155,"14":-0.13405706369394513,"15":-0.06608603409145337,"16":-0.08492787528310713,"17":-0.06850611028023548,"18":-0.1683540440649566,"19":-0.08233795649051535,"20":-0.03523152707641755,"21":0.0243776573447789,"22":-0.06399578619279007,"23":-0.04393660147926366,"24":0.08094277365015713,"25":0.005855583788973686,"26":0.011616401864495023,"27":-0.0797715005409633,"28":-0.04122523690411552,"29":-0.1608902138135245,"30":-0.06694568904435629,"31":-0.14646544659012486,"32":-0.12440700854590646,"33":-0.004055896251632724,"34":-0.012098477773561031,"35":-0.07483788180351575,"36":-0.07903375194573022,"37":0.07752078195161002,"38":-0.13150895631808057,"39":-0.12031779799705747,"40":-0.10842138986935547,"41":-0.1421068079060745,"42":-0.135975235986951,"43":-0.13595932532168833,"44":0.12622912095214622,"45":-0.1115338646367503,"46":-0.06737372970139108,"47":-0.12454130512967522,"48":-0.09812419956069475,"49":-0.12456950790235112,"50":-0.05262771651579829,"51":-0.07953119117002602,"52":-0.009670926714147808,"53":-0.011154896488856123,"54":-0.03410131620748678,"55":0.05938188978536519,"56":0.030219375298818896,"57":0.011599484747734111,"58":-0.07892964981321489,"59":-0.14091429317745374,"60":0.01935435885049619,"61":-0.12370048169029939,"62":-0.0699199348404725,"63":0.041182208872750495,"64":-0.11155405136769779,"65":0.1144001785551254,"66":-0.13892056745173792,"67":-0.013439697478933792,"68":-0.1428601500165379,"69":-0.1418226845443175,"70":-0.10485574252577708,"71":-0.07637737992283467,"72":-0.1497304388535667,"73":-0.03199124444052143,"74":0.005181217699933651,"75":-0.10324350793197253,"76":-0.03940383822688561,"77":0.05109822536476158,"78":-0.1854231362300366,"79":-0.12261713023389045,"80":0.024000510922261794,"81":-0.10652830857088355,"82":-0.14150139363892986,"83":-0.022817876620482618,"84":-0.0479834114135357,"85":-0.05430429372696671,"86":-0.06715108619101282,"87":-0.070451711914889,"88":-0.025222536887184694,"89":-0.21125458069966038,"90":0.03131481237436753,"91":-0.229879291338285,"92":-0.04547754713626852,"93":-0.09450711535518237,"94":-0.001013533864543115,"95":0.06252682114684631,"96":-0.014420205565284451,"97":-0.1129596351346618,"98":-0.10168837535724984,"99":-0.1138912409049796,"100":-0.11876595334356747,"101":0.08287327765585367,"102":0.08143745070844274,"103":-0.09903583837255682,"104":-0.14285371394768792,"105":0.03273287647745955,"106":-0.10507898969581007,"107":-0.15607122527553452,"108":-0.19073233352583358,"109":0.09784564061980414,"110":-0.09068676866366307,"111":-0.11656110572793477,"112":-0.02111449112716733,"113":-0.1967452278817572,"114":-0.11443163290087537,"115":0.038166451248551427,"116":-0.17999117873602918,"117":-0.1303822855865474,"118":-0.05757984410320807,"119":-0.025513455034701878,"120":0.0065456612755055614,"121":-0.1300176868926935,"122":-0.13000042306914827,"123":-0.015570971706128738,"124":-0.09717451364292608,"125":0.020868563785722105,"126":-0.030272238756081378,"127":-0.13032783745719156,"128":-0.11802069758155616,"129":-0.10855886536078911,"130":-0.015734635633217253,"131":-0.05445984977303165,"132":-0.15893020887117604,"133":0.013579480956233179,"134":-0.07230619287542756,"135":-0.0069757637536336575,"136":-0.11580624354267947,"137":-0.004691927797097305,"138":-0.0986274770730775,"139":-0.15786192125203918,"140":-0.059153510086438654,"141":-0.13711390937180004,"142":-0.13826355546080285,"143":-0.012182183113923096,"144":-0.046454219192478316,"145":-0.03159977867364003,"146":-0.021525616697274513,"147":-0.0593077614417216,"148":-0.02134027706532604,"149":-0.14560403192075652,"150":-0.0028041749402608887,"151":-0.04770267003001079,"152":-0.0206479397040542,"153":-0.05318671334524859,"154":-0.029133257320942546,"155":-0.005937009807432126,"156":-0.06704740471720962,"157":-0.12371628476001437,"158":0.03797921651839743,"159":0.11343240636098496,"160":-0.026382957217584675,"161":0.10428330441079951,"162":0.02167792763505825,"163":0.1129921445010417,"164":-0.023869775982354777,"165":-0.0017905431050423096,"166":-0.03965557229044719,"167":-0.2333315933423454,"168":0.01457195904035151,"169":0.016679928241164352,"170":-0.04881568337352953,"171":0.009201157480129635,"172":-0.056452325091499486,"173":-0.07467684631620637,"174":-0.05051205768875004,"175":-0.05981426456852311,"176":-0.06509779016529184,"177":-0.05265273370799672,"178":-0.11358331891688896,"179":-0.09633859686692475,"180":-0.060576469813862506,"181":-0.014572377897934335,"182":-0.10321057406740322,"183":0.04311749151881637,"184":-0.07267079746648024,"185":-0.10405622639045328,"186":-0.1520678855550479,"187":-0.11182965603813293,"188":-0.25259656284214255,"189":-0.10774619446739814,"190":-0.04606242202736492,"191":-0.03777780293029286,"192":-0.10507017359526799,"193":-0.05072229931520935,"194":0.055317375764122274,"195":0.016669425725557338,"196":-0.03752021486297537,"197":-0.24808455028171209,"198":-0.22335329820120536,"199":-0.08627225592268424,"200":0.12354874773088947,"201":0.17105288409165334,"202":0.0977245582260362,"203":-0.042110697779889204,"204":-0.09955220359388041,"205":-0.08821881429002414,"206":-0.022453467269829615,"207":-0.09143672897762327,"208":-0.030503754361781002,"209":0.20694861939505546,"210":-0.07198989435747871,"211":0.18618363836040644,"212":-0.014640501091792603,"213":-0.08391664149557375,"214":-0.005737700439849727,"215":-0.02581968541524368,"216":-0.00204717337418513,"217":-0.14200366632500022,"218":-0.1137651370487515,"219":0.1440135876682419,"220":-0.0839117367501753,"221":0.169868658631666,"222":0.04373421151439904,"223":-0.017722352575290423,"224":-0.027416592951422323,"225":-0.06373075988757597,"226":-0.008399895816558157,"227":-0.13190679566378977,"228":-0.03497048705407557,"229":0.07973376724291177,"230":-0.06865471751138055,"231":0.11465597513061712,"232":-0.0072972076080997225,"233":-0.04420096984984521,"234":-0.0389801150562742,"235":0.02662753571145437,"236":-0.023732742424741198,"237":-0.0914975836660393,"238":-0.09549629340871142,"239":-0.002287040471429396,"240":-0.03530487060630865,"241":0.08627534730561108,"242":-0.15785114862501967,"243":0.00020774620277749345,"244":0.07616137008388044,"245":-0.052075220608097675,"246":-0.0632981601761272,"247":-0.04370117948943277,"248":-0.012995054881536594,"249":-0.028206262129226847}},{"sx":5,"sy":5,"depth":10,"w":{"0":0.09370969324835626,"1":-0.23206661014721663,"2":0.023627594801659945,"3":-0.28146066424902166,"4":-0.029844823835911097,"5":-0.05135880503785757,"6":0.08275853714388871,"7":0.06736266749069372,"8":-0.06390025603089682,"9":-0.024842808292628762,